{"learner":{"attributes":{"best_iteration":"0","best_score":"0.8971487001991142","scikit_learn":"{\"_estimator_type\": \"regressor\"}"},"feature_names":[],"feature_types":[],"gradient_booster":{"model":{"gbtree_model_param":{"num_parallel_tree":"1","num_trees":"31"},"iteration_indptr":[0,1,2,3,4,5,6,7,8,9,10,11,12,13,14,15,16,17,18,19,20,21,22,23,24,25,26,27,28,29,30,31],"tree_info":[0,0,0,0,0,0,0,0,0,0,0,0,0,0,0,0,0,0,0,0,0,0,0,0,0,0,0,0,0,0,0],"trees":[{"base_weights":[1.0630797E-3,-1.2632701E-1,5.2520394E-2,5.442907E-1,-1.4068484E-1,1.5300843E-2,2.0802784E-1,1.162479E0,-0E0,-1.1150076E-1,-2.659117E-1,-5.2700236E-2,8.374953E-2,1.6904315E-3,2.783559E-1,2.0183203E-1,1.0469128E-1,-2.3148272E-2,2.3830757E-1,-1.19118E-1,1.8852232E-1,-2.3636445E-1,-5.2885884E-1,8.560023E-3,-1.1400401E-1,5.6506094E-2,2.1477324E-1,-2.7551123E-1,7.1520455E-2,8.253538E-2,3.4547165E-1,-4.098337E-3,5.4282725E-1,2.3914503E-2,-5.9830762E-2,-1.0940473E-1,-3.579738E-1,5.546497E-1,-6.144376E-2,-1.1339513E-1,-2.899642E-1,-1.0202498E0,-2.4974398E-2,5.6718695E-1,-1.0414964E-3,-6.1419327E-2,-3.400441E-1,6.545924E-2,-4.0354326E-1,9.103923E-1,1.3012774E-1,-9.0361714E-2,-4.9153748E-1,-8.497805E-2,1.776632E-1,1.5976122E-2,7.2798705E-1,5.3268754E-1,2.2087424E-1,-0E0,2.793296E-2,3.336954E-3,-4.220245E-3,-4.597766E-3,-1.8536503E-3,-8.165002E-3,-1.9668872E-2,2.8997121E-2,-2.1608223E-3,-7.802964E-3,2.220634E-3,-6.200398E-3,8.739252E-3,-1.6067151E-2,-7.374975E-3,-1.7874165E-2,-3.98028E-2,-2.5626193E-3,4.1969004E-5,-1.3559518E-3,3.5941605E-2,6.550214E-3,-3.7112404E-4,-2.7771184E-4,-5.940523E-3,-7.848301E-3,-2.2164218E-2,2.8860824E-2,1.8551924E-3,-1.821279E-2,-1.5435786E-3,4.397335E-2,4.577056E-3,7.6888525E-3,-2.591903E-3,-3.8653654E-3,-0E0,-2.5020575E-2,-6.2316954E-3,-1.6406342E-2,-4.5055157E-4,1.1941313E-2,-1.0298799E-3,1.3826552E-2,-9.077189E-4,3.0721E-2,-2.8379976E-3,2.5392676E-2,6.020064E-3,1.0609903E-2,2.8574087E-3],"categories":[],"categories_nodes":[],"categories_segments":[],"categories_sizes":[],"default_left":[0,0,0,0,0,0,0,0,0,0,0,0,0,0,0,0,0,0,0,0,0,0,0,0,0,0,0,0,0,0,0,0,0,0,0,0,0,0,0,0,0,0,0,0,0,0,0,0,0,0,0,0,0,0,0,0,0,0,0,0,0,0,0,0,0,0,0,0,0,0,0,0,0,0,0,0,0,0,0,0,0,0,0,0,0,0,0,0,0,0,0,0,0,0,0,0,0,0,0,0,0,0,0,0,0,0,0,0,0,0,0],"id":0,"left_children":[1,3,5,7,9,11,13,15,17,19,21,23,25,27,29,31,-1,-1,33,35,37,39,41,43,45,47,49,51,53,55,57,-1,59,-1,61,63,65,67,69,71,73,75,77,79,81,83,85,87,89,91,93,95,97,99,101,103,105,107,109,-1,-1,-1,-1,-1,-1,-1,-1,-1,-1,-1,-1,-1,-1,-1,-1,-1,-1,-1,-1,-1,-1,-1,-1,-1,-1,-1,-1,-1,-1,-1,-1,-1,-1,-1,-1,-1,-1,-1,-1,-1,-1,-1,-1,-1,-1,-1,-1,-1,-1,-1,-1],"loss_changes":[2.0458166E1,8.679911E0,1.28487425E1,6.278328E0,3.148075E0,8.368861E0,6.1963844E0,1.8564713E1,2.1899972E0,1.6516228E0,1.0798054E0,3.3952532E0,3.1603122E0,2.1365182E0,4.128498E0,9.583371E-1,0E0,0E0,1.6711051E0,1.5361137E0,1.7113715E0,9.1816235E-1,3.7103477E0,2.4750373E0,5.302415E0,3.0572653E0,8.804302E0,7.8272283E-1,1.507338E0,3.4909935E0,5.342243E0,0E0,8.93044E-1,0E0,1.1372151E-1,1.3757181E0,4.0502787E-1,2.0897741E0,3.421954E-1,1.8588797E0,9.125128E-1,2.2480965E-2,2.252365E-2,3.180816E0,1.0856041E0,2.5970435E0,2.3520937E0,2.2100437E0,9.1558313E-1,6.4901857E0,3.80824E0,3.4021452E-2,6.6942525E-1,1.1110368E0,2.5682104E0,1.6335063E0,2.0456014E0,9.49527E0,2.3320065E0,0E0,0E0,0E0,0E0,0E0,0E0,0E0,0E0,0E0,0E0,0E0,0E0,0E0,0E0,0E0,0E0,0E0,0E0,0E0,0E0,0E0,0E0,0E0,0E0,0E0,0E0,0E0,0E0,0E0,0E0,0E0,0E0,0E0,0E0,0E0,0E0,0E0,0E0,0E0,0E0,0E0,0E0,0E0,0E0,0E0,0E0,0E0,0E0,0E0,0E0,0E0,0E0],"parents":[2147483647,0,0,1,1,2,2,3,3,4,4,5,5,6,6,7,7,8,8,9,9,10,10,11,11,12,12,13,13,14,14,15,15,18,18,19,19,20,20,21,21,22,22,23,23,24,24,25,25,26,26,27,27,28,28,29,29,30,30,32,32,34,34,35,35,36,36,37,37,38,38,39,39,40,40,41,41,42,42,43,43,44,44,45,45,46,46,47,47,48,48,49,49,50,50,51,51,52,52,53,53,54,54,55,55,56,56,57,57,58,58],"right_children":[2,4,6,8,10,12,14,16,18,20,22,24,26,28,30,32,-1,-1,34,36,38,40,42,44,46,48,50,52,54,56,58,-1,60,-1,62,64,66,68,70,72,74,76,78,80,82,84,86,88,90,92,94,96,98,100,102,104,106,108,110,-1,-1,-1,-1,-1,-1,-1,-1,-1,-1,-1,-1,-1,-1,-1,-1,-1,-1,-1,-1,-1,-1,-1,-1,-1,-1,-1,-1,-1,-1,-1,-1,-1,-1,-1,-1,-1,-1,-1,-1,-1,-1,-1,-1,-1,-1,-1,-1,-1,-1,-1,-1],"split_conditions":[1.2193635E-2,7.5E-1,1E0,6.55E2,1.7084E4,1E0,1.029E3,1E0,1E0,1.4133E4,1E0,5.7E2,4.2553192E-1,5.9907142E-2,9.0456806E-2,5.7E2,1.0469128E-1,-2.3148272E-2,6.9E2,8.228195E-3,1.5776E4,1E0,8.05E2,4.3E1,3.3112583E-1,4.1324E5,4.5321247E-1,2.62E2,3.27E2,1E0,7.25E3,-4.098337E-3,1.1E1,2.3914503E-2,1E0,1E0,3.42E3,1E0,1E0,1.07958E5,5.65E2,1E0,2.084E4,2.2E1,1E0,8.099E3,3.8786E4,1.3608351E-2,3.053435E-1,2.2898E4,2.4428E4,1E0,1E0,5.65E2,6.78E2,1.488E3,3.7063E4,5.7E2,1E0,-0E0,2.793296E-2,3.336954E-3,-4.220245E-3,-4.597766E-3,-1.8536503E-3,-8.165002E-3,-1.9668872E-2,2.8997121E-2,-2.1608223E-3,-7.802964E-3,2.220634E-3,-6.200398E-3,8.739252E-3,-1.6067151E-2,-7.374975E-3,-1.7874165E-2,-3.98028E-2,-2.5626193E-3,4.1969004E-5,-1.3559518E-3,3.5941605E-2,6.550214E-3,-3.7112404E-4,-2.7771184E-4,-5.940523E-3,-7.848301E-3,-2.2164218E-2,2.8860824E-2,1.8551924E-3,-1.821279E-2,-1.5435786E-3,4.397335E-2,4.577056E-3,7.6888525E-3,-2.591903E-3,-3.8653654E-3,-0E0,-2.5020575E-2,-6.2316954E-3,-1.6406342E-2,-4.5055157E-4,1.1941313E-2,-1.0298799E-3,1.3826552E-2,-9.077189E-4,3.0721E-2,-2.8379976E-3,2.5392676E-2,6.020064E-3,1.0609903E-2,2.8574087E-3],"split_indices":[2,3,13,1,1,6,1,9,9,1,5,4,2,2,2,4,0,0,4,2,1,9,4,1,2,1,2,1,1,8,1,0,1,0,15,10,1,13,9,1,4,9,1,1,3,1,1,2,2,1,1,9,9,4,1,1,1,4,6,0,0,0,0,0,0,0,0,0,0,0,0,0,0,0,0,0,0,0,0,0,0,0,0,0,0,0,0,0,0,0,0,0,0,0,0,0,0,0,0,0,0,0,0,0,0,0,0,0,0,0,0],"split_type":[0,0,0,0,0,0,0,0,0,0,0,0,0,0,0,0,0,0,0,0,0,0,0,0,0,0,0,0,0,0,0,0,0,0,0,0,0,0,0,0,0,0,0,0,0,0,0,0,0,0,0,0,0,0,0,0,0,0,0,0,0,0,0,0,0,0,0,0,0,0,0,0,0,0,0,0,0,0,0,0,0,0,0,0,0,0,0,0,0,0,0,0,0,0,0,0,0,0,0,0,0,0,0,0,0,0,0,0,0,0,0],"sum_hessian":[3.120043E3,8.967095E2,2.2233335E3,1.7876358E1,8.788331E2,1.7953671E3,4.2796634E2,7.7841253E0,1.0092232E1,7.1491205E2,1.6392107E2,9.0001086E2,8.9535626E2,1.09410324E2,3.1855603E2,6.3093944E0,1.4747308E0,1.7911272E0,8.301105E0,6.981238E2,1.678826E1,1.4941104E2,1.4510033E1,4.4977963E2,4.5023123E2,7.430501E2,1.523061E2,2.1134796E1,8.827553E1,8.226246E1,2.3629356E2,3.3201787E0,2.9892156E0,2.422301E0,5.8788037E0,6.726467E2,2.5477024E1,6.479231E0,1.0309028E1,4.6867714E1,1.0254333E2,6.726796E0,7.7832365E0,6.794771E0,4.4298486E2,3.6665E2,8.3581245E1,7.2992004E2,1.3130083E1,1.53361845E1,1.3696992E2,1.2393716E1,8.74108E0,3.537514E1,5.2900387E1,7.5641914E1,6.6205444E0,9.2791046E1,1.4350252E2,1.6032369E0,1.3859788E0,1.3690734E0,4.5097303E0,3.4790842E2,3.2473834E2,2.1522821E1,3.9542022E0,3.6785085E0,2.8007226E0,4.1059427E0,6.203085E0,3.8686752E1,8.180959E0,1.3577625E1,8.89657E1,4.1919813E0,2.534815E0,2.836028E0,4.9472084E0,3.8385315E0,2.9562397E0,2.0422493E1,4.2256235E2,2.6663196E2,1.0001803E2,7.143691E1,1.2144337E1,1.75911E0,7.2816095E2,7.6811867E0,5.448897E0,8.234914E0,7.10127E0,8.671806E1,5.0251858E1,7.6370063E0,4.75671E0,2.922961E0,5.8181195E0,3.5684502E0,3.1806692E1,2.5738037E1,2.7162348E1,6.4798574E0,6.9162056E1,4.7777295E0,1.8428149E0,4.6757698E1,4.6033348E1,6.8493286E1,7.500923E1],"tree_param":{"num_deleted":"0","num_feature":"17","num_nodes":"111","size_leaf_vector":"1"}},{"base_weights":[4.901889E-3,-1.0388244E-1,6.377398E-2,-9.5986396E-2,-3.8326165E-1,3.054136E-2,2.0412236E-1,2.4721622E-1,-1.0321572E-1,-4.8364046E-1,6.2122602E-2,-2.4447042E-2,8.463408E-2,5.252008E-2,2.6837662E-1,4.4106188E-1,-1.642742E-2,-1.2047263E-1,6.103862E-3,-7.498763E-2,-5.543571E-1,-2.57285E-3,1.7406958E-1,-9.103876E-3,-1.6273756E-1,3.7917573E-2,1.8153702E-1,-2.7238917E-1,9.088848E-2,4.002895E-1,1.7660032E-1,-1.7104183E-1,7.2672683E-1,-1.0532542E-1,-1.8293996E-1,9.824587E-2,-9.298982E-2,7.1919276E-3,-1.2236351E-2,-4.133566E-1,-9.844584E-1,7.058089E-3,-0E0,3.206437E-1,-1.5209379E-2,-2.9101593E-2,-3.3298406E-1,5.093605E-2,-5.122134E-1,3.2791108E-1,1.2787406E-1,-4.481887E-1,-1.3142701E-3,-1.8767287E-1,1.2899743E-1,1.5475241E-3,5.521602E-1,1.5873976E-1,4.136582E-2,1.0390393E-2,-1.9348383E-2,7.297878E-2,8.225218E-3,-3.6981076E-3,-7.878957E-4,-2.8921922E-3,-7.6160617E-3,2.1345608E-3,1.5084661E-2,-1.1669569E-2,5.9036264E-4,-2.173751E-2,-2.3104392E-3,-4.7665454E-2,-2.3564752E-3,1.6192587E-2,-0E0,-2.2531782E-4,-7.5082155E-3,9.4693955E-3,-4.4871867E-3,-0E0,-1.4411982E-2,4.1828462E-4,2.8506971E-3,-7.743E-3,-3.3678383E-2,6.265128E-3,2.1945002E-2,7.646554E-3,1.04140905E-4,-3.2175325E-3,-2.5263783E-2,3.8352879E-3,-1.1139396E-2,1.8605987E-3,1.1976482E-2,-2.0131774E-3,2.123181E-2,2.3591846E-2,8.179701E-3,6.459946E-3,-8.891328E-3],"categories":[],"categories_nodes":[],"categories_segments":[],"categories_sizes":[],"default_left":[0,0,0,0,0,0,0,0,0,0,0,0,0,0,0,0,0,0,0,0,0,0,0,0,0,0,0,0,0,0,0,0,0,0,0,0,0,0,0,0,0,0,0,0,0,0,0,0,0,0,0,0,0,0,0,0,0,0,0,0,0,0,0,0,0,0,0,0,0,0,0,0,0,0,0,0,0,0,0,0,0,0,0,0,0,0,0,0,0,0,0,0,0,0,0,0,0,0,0,0,0,0,0],"id":1,"left_children":[1,3,5,7,9,11,13,15,17,19,21,23,25,27,29,31,-1,33,35,37,39,-1,41,43,45,47,49,51,53,55,57,59,61,63,65,67,69,-1,-1,71,73,-1,-1,75,77,79,81,83,85,87,89,91,-1,93,95,97,99,101,-1,-1,-1,-1,-1,-1,-1,-1,-1,-1,-1,-1,-1,-1,-1,-1,-1,-1,-1,-1,-1,-1,-1,-1,-1,-1,-1,-1,-1,-1,-1,-1,-1,-1,-1,-1,-1,-1,-1,-1,-1,-1,-1,-1,-1],"loss_changes":[1.98829E1,2.319395E0,9.370284E0,2.6449156E0,1.3808751E0,4.8602676E0,3.70508E0,3.6062455E0,1.9753351E0,5.9442043E-1,1.24527544E-1,1.6974554E0,3.6990156E0,1.4569157E0,3.1374416E0,3.37411E0,0E0,8.031044E-1,1.3065536E0,6.313978E-1,6.814923E-1,0E0,3.6637604E-2,1.4434915E0,1.7756276E0,3.9732466E0,2.0089512E0,4.2391777E-1,1.133801E0,6.57123E0,3.0913281E0,1.8496333E0,8.910866E0,1.0142002E0,1.0018201E0,7.246548E-1,2.3266034E0,0E0,0E0,1.6594081E0,1.9540169E0,0E0,0E0,8.918618E-1,1.2712108E0,1.9526923E0,1.7375815E0,8.7789524E-1,1.5579879E0,3.1393127E0,3.0929165E0,6.979238E-1,0E0,8.098029E-1,1.6184328E0,1.6324552E0,4.8563824E0,4.1809764E0,0E0,0E0,0E0,0E0,0E0,0E0,0E0,0E0,0E0,0E0,0E0,0E0,0E0,0E0,0E0,0E0,0E0,0E0,0E0,0E0,0E0,0E0,0E0,0E0,0E0,0E0,0E0,0E0,0E0,0E0,0E0,0E0,0E0,0E0,0E0,0E0,0E0,0E0,0E0,0E0,0E0,0E0,0E0,0E0,0E0],"parents":[2147483647,0,0,1,1,2,2,3,3,4,4,5,5,6,6,7,7,8,8,9,9,10,10,11,11,12,12,13,13,14,14,15,15,17,17,18,18,19,19,20,20,22,22,23,23,24,24,25,25,26,26,27,27,28,28,29,29,30,30,31,31,32,32,33,33,34,34,35,35,36,36,39,39,40,40,43,43,44,44,45,45,46,46,47,47,48,48,49,49,50,50,51,51,53,53,54,54,55,55,56,56,57,57],"right_children":[2,4,6,8,10,12,14,16,18,20,22,24,26,28,30,32,-1,34,36,38,40,-1,42,44,46,48,50,52,54,56,58,60,62,64,66,68,70,-1,-1,72,74,-1,-1,76,78,80,82,84,86,88,90,92,-1,94,96,98,100,102,-1,-1,-1,-1,-1,-1,-1,-1,-1,-1,-1,-1,-1,-1,-1,-1,-1,-1,-1,-1,-1,-1,-1,-1,-1,-1,-1,-1,-1,-1,-1,-1,-1,-1,-1,-1,-1,-1,-1,-1,-1,-1,-1,-1,-1],"split_conditions":[3.7593983E-2,1.91821E5,1E0,7.5E-1,1E0,1E0,1.347E3,6.339E3,1E0,1E0,2.1648E5,5.225343E-1,3.1136483E-1,7.8E1,7.25E3,4.3E1,-1.642742E-2,1E0,1E0,5.65E2,1.330191E6,-2.57285E-3,5.66309E5,4.3E1,5.7E2,3.4772E5,3.6971682E-1,1.6638935E-1,5.65E2,9.675859E-2,9.546539E-1,1E0,5.5E2,1.2193635E-2,1.409E3,2.7577704E-2,9.15E2,7.1919276E-3,-1.2236351E-2,5.66309E5,1E0,7.058089E-3,-0E0,1.953125E-1,1.91821E5,2.499E3,5.6624603E-1,1.4768867E-1,1E0,4.4009E4,1.1276E4,1E0,-1.3142701E-3,1E0,3.053435E-1,1E0,5.7E2,5.494506E-1,4.136582E-2,1.0390393E-2,-1.9348383E-2,7.297878E-2,8.225218E-3,-3.6981076E-3,-7.878957E-4,-2.8921922E-3,-7.6160617E-3,2.1345608E-3,1.5084661E-2,-1.1669569E-2,5.9036264E-4,-2.173751E-2,-2.3104392E-3,-4.7665454E-2,-2.3564752E-3,1.6192587E-2,-0E0,-2.2531782E-4,-7.5082155E-3,9.4693955E-3,-4.4871867E-3,-0E0,-1.4411982E-2,4.1828462E-4,2.8506971E-3,-7.743E-3,-3.3678383E-2,6.265128E-3,2.1945002E-2,7.646554E-3,1.04140905E-4,-3.2175325E-3,-2.5263783E-2,3.8352879E-3,-1.1139396E-2,1.8605987E-3,1.1976482E-2,-2.0131774E-3,2.123181E-2,2.3591846E-2,8.179701E-3,6.459946E-3,-8.891328E-3],"split_indices":[2,1,13,3,13,6,1,1,8,9,1,2,2,1,1,1,0,12,9,4,1,0,1,1,4,1,2,2,4,2,2,14,1,2,1,2,1,0,0,1,12,0,0,2,1,1,2,2,14,1,1,6,0,6,2,8,4,2,0,0,0,0,0,0,0,0,0,0,0,0,0,0,0,0,0,0,0,0,0,0,0,0,0,0,0,0,0,0,0,0,0,0,0,0,0,0,0,0,0,0,0,0,0],"split_type":[0,0,0,0,0,0,0,0,0,0,0,0,0,0,0,0,0,0,0,0,0,0,0,0,0,0,0,0,0,0,0,0,0,0,0,0,0,0,0,0,0,0,0,0,0,0,0,0,0,0,0,0,0,0,0,0,0,0,0,0,0,0,0,0,0,0,0,0,0,0,0,0,0,0,0,0,0,0,0,0,0,0,0,0,0,0,0,0,0,0,0,0,0,0,0,0,0,0,0,0,0,0,0],"sum_hessian":[3.1031792E3,1.088808E3,2.0143712E3,1.0605358E3,2.8272243E1,1.6302742E3,3.8409705E2,2.0908386E1,1.0396273E3,2.3185438E1,5.0868053E0,8.077989E2,8.224753E2,1.1533886E2,2.687582E2,1.7267773E1,3.6406133E0,8.9859076E2,1.4103658E2,3.9328756E0,1.9252562E1,1.9075372E0,3.1792681E0,7.287355E2,7.9063385E1,5.565757E2,2.658996E2,1.1262312E1,1.04076546E2,1.0844119E2,1.60317E2,5.5107965E0,1.1756976E1,7.266726E2,1.7191812E2,7.360907E1,6.7427505E1,2.0110548E0,1.9218211E0,1.6151253E1,3.101309E0,1.9496845E0,1.2295835E0,1.2013464E1,7.1672205E2,4.527939E1,3.3783993E1,5.447732E2,1.18025055E1,6.946069E1,1.964389E2,5.575781E0,5.686531E0,1.1736763E1,9.233978E1,3.0370642E1,7.807056E1,1.5916765E2,1.1493555E0,2.6623297E0,2.8484666E0,1.5013448E0,1.0255631E1,5.907627E2,1.3590996E2,7.913814E1,9.277999E1,7.032271E1,3.286362E0,1.8158283E1,4.9269222E1,7.6348653E0,8.516388E0,1.34183E0,1.759479E0,6.653803E0,5.359661E0,6.954037E2,2.1318356E1,1.10908785E1,3.418851E1,1.0543214E1,2.324078E1,2.9816754E2,2.4660567E2,9.453581E0,2.3489246E0,5.499917E1,1.446153E1,9.62837E1,1.00155205E2,3.8070383E0,1.7687427E0,4.229419E0,7.5073442E0,7.5280136E1,1.7059647E1,2.8375404E1,1.9952369E0,4.1293606E1,3.6776947E1,1.4222874E2,1.6938904E1],"tree_param":{"num_deleted":"0","num_feature":"17","num_nodes":"103","size_leaf_vector":"1"}},{"base_weights":[1.0281381E-2,-5.0917614E-1,1.928399E-2,-5.703717E-1,7.134618E-2,-1.19191386E-1,3.3053502E-2,-1.4531532E-1,-6.69496E-1,-3.248212E-3,9.554749E-3,-1.7144002E-2,-2.2384818E-1,5.9505172E-2,-5.1241644E-2,-1.3961016E-2,7.298149E-2,-7.718727E-1,-4.075831E-3,-7.948922E-2,2.4099302E-1,-4.4162452E-1,-1.416664E-1,4.7621587E-1,5.3021614E-2,-2.423435E-2,-2.5866544E-1,4.3134494E-3,-0E0,-4.6082002E-1,-1.0761553E0,1.8151939E-2,-9.777207E-2,3.61733E-1,-6.2270854E-2,-2.7811512E-1,-7.092168E-1,3.5422707E-1,-1.8816766E-1,2.387495E0,1.9083017E-1,-2.387309E-3,1.0709398E-1,-6.466343E-3,-2.3507738E-1,-1.5199725E-1,-7.077898E-1,-1.7151136E-2,-0E0,-3.5596415E-2,-3.972594E-3,-7.683193E-3,-5.3256727E-4,3.0221336E-2,7.521202E-3,-4.2665065E-3,4.6041347E-3,-2.190527E-2,-2.7774887E-3,-3.801059E-3,-3.1655464E-2,4.4503342E-3,2.0742651E-2,-9.455999E-3,1.6042608E-4,1.4988439E-2,9.195995E-2,1.0630734E-2,-7.1443557E-3,6.5928826E-4,-5.1039895E-3,3.8011295E-3,-5.147898E-3,-5.942362E-4,7.917848E-3,-4.2142577E-2,-5.1721185E-3,-8.520315E-3,1.1762483E-2,-3.4763698E-2,-7.054657E-3],"categories":[],"categories_nodes":[],"categories_segments":[],"categories_sizes":[],"default_left":[0,0,0,0,0,0,0,0,0,0,0,0,0,0,0,0,0,0,0,0,0,0,0,0,0,0,0,0,0,0,0,0,0,0,0,0,0,0,0,0,0,0,0,0,0,0,0,0,0,0,0,0,0,0,0,0,0,0,0,0,0,0,0,0,0,0,0,0,0,0,0,0,0,0,0,0,0,0,0,0,0],"id":2,"left_children":[1,3,5,7,9,11,13,15,17,-1,-1,19,21,23,25,-1,27,29,-1,31,33,35,37,39,41,43,45,-1,-1,47,49,-1,51,53,55,57,59,61,63,65,67,69,71,73,75,77,79,-1,-1,-1,-1,-1,-1,-1,-1,-1,-1,-1,-1,-1,-1,-1,-1,-1,-1,-1,-1,-1,-1,-1,-1,-1,-1,-1,-1,-1,-1,-1,-1,-1,-1],"loss_changes":[1.4566169E1,1.9752836E0,5.8511124E0,1.8545809E0,3.1263155E-1,2.933832E0,6.23553E0,8.1337076E-1,1.9167328E0,0E0,0E0,2.2879348E0,2.3192725E0,5.6728587E0,3.702855E0,0E0,4.8862398E-2,2.3858376E0,0E0,1.4530001E0,1.0614514E0,1.303194E0,2.37432E0,1.6877357E1,6.2946324E0,2.1914856E0,3.463179E0,0E0,0E0,9.4112253E-1,1.3049965E0,0E0,1.4051173E0,1.0618708E0,1.6668682E-1,1.9103363E0,2.3650699E0,4.2464578E-1,2.3186104E0,3.3042297E0,2.1438448E0,4.252349E0,5.823616E0,1.95519E0,2.937973E0,4.6351757E0,2.6140685E0,0E0,0E0,0E0,0E0,0E0,0E0,0E0,0E0,0E0,0E0,0E0,0E0,0E0,0E0,0E0,0E0,0E0,0E0,0E0,0E0,0E0,0E0,0E0,0E0,0E0,0E0,0E0,0E0,0E0,0E0,0E0,0E0,0E0,0E0],"parents":[2147483647,0,0,1,1,2,2,3,3,4,4,5,5,6,6,7,7,8,8,11,11,12,12,13,13,14,14,16,16,17,17,19,19,20,20,21,21,22,22,23,23,24,24,25,25,26,26,29,29,30,30,32,32,33,33,34,34,35,35,36,36,37,37,38,38,39,39,40,40,41,41,42,42,43,43,44,44,45,45,46,46],"right_children":[2,4,6,8,10,12,14,16,18,-1,-1,20,22,24,26,-1,28,30,-1,32,34,36,38,40,42,44,46,-1,-1,48,50,-1,52,54,56,58,60,62,64,66,68,70,72,74,76,78,80,-1,-1,-1,-1,-1,-1,-1,-1,-1,-1,-1,-1,-1,-1,-1,-1,-1,-1,-1,-1,-1,-1,-1,-1,-1,-1,-1,-1,-1,-1,-1,-1,-1,-1],"split_conditions":[6.244562E-4,1E0,7.8E1,1.93E2,4.461E3,4.837234E-3,1.8833E4,2.2E1,8.85E2,-3.248212E-3,9.554749E-3,4.2834114E-3,6.250986E-3,7.5E-1,1.1328682E-2,-1.3961016E-2,1.36E2,1E0,-4.075831E-3,1.0021384E-3,1E0,5.573039E-3,6.5671634E-3,5.68E2,4.256822E-3,6.45E2,3.4772E5,4.3134494E-3,-0E0,2.6554E4,1E0,1.8151939E-2,1E0,4.341611E-3,4.724703E-3,5.017184E-3,5.7E2,6.3955337E-3,1E0,1.26E2,6.965E3,7.6E2,1.7913409E-2,9.943676E-3,1.9848E4,9.5344E4,1.8652491E-2,-1.7151136E-2,-0E0,-3.5596415E-2,-3.972594E-3,-7.683193E-3,-5.3256727E-4,3.0221336E-2,7.521202E-3,-4.2665065E-3,4.6041347E-3,-2.190527E-2,-2.7774887E-3,-3.801059E-3,-3.1655464E-2,4.4503342E-3,2.0742651E-2,-9.455999E-3,1.6042608E-4,1.4988439E-2,9.195995E-2,1.0630734E-2,-7.1443557E-3,6.5928826E-4,-5.1039895E-3,3.8011295E-3,-5.147898E-3,-5.942362E-4,7.917848E-3,-4.2142577E-2,-5.1721185E-3,-8.520315E-3,1.1762483E-2,-3.4763698E-2,-7.054657E-3],"split_indices":[0,6,1,1,1,0,1,1,4,0,0,0,0,3,0,0,1,9,0,0,6,0,0,1,0,4,1,0,0,1,7,0,10,0,0,0,4,0,6,1,1,4,0,0,1,1,0,0,0,0,0,0,0,0,0,0,0,0,0,0,0,0,0,0,0,0,0,0,0,0,0,0,0,0,0,0,0,0,0,0,0],"split_type":[0,0,0,0,0,0,0,0,0,0,0,0,0,0,0,0,0,0,0,0,0,0,0,0,0,0,0,0,0,0,0,0,0,0,0,0,0,0,0,0,0,0,0,0,0,0,0,0,0,0,0,0,0,0,0,0,0,0,0,0,0,0,0,0,0,0,0,0,0,0,0,0,0,0,0,0,0,0,0,0,0],"sum_hessian":[3.1221526E3,5.2051876E1,3.0701008E3,4.7259754E1,4.7921247E0,2.7632043E2,2.7937803E3,9.594076E0,3.7665676E1,2.8662674E0,1.9258573E0,1.4097737E2,1.3534306E2,2.127618E3,6.6616235E2,3.6171458E0,5.97693E0,3.1070946E1,6.5947304E0,1.14421715E2,2.6555662E1,3.5549267E1,9.9793785E1,3.1249956E1,2.096368E3,5.908328E2,7.532953E1,3.1611242E0,2.815806E0,1.6770452E1,1.4300493E1,1.9992871E0,1.1242243E2,1.9091581E1,7.4640803E0,2.3563854E1,1.19854145E1,7.803931E0,9.198985E1,3.0574443E0,2.8192513E1,1.0349464E3,1.0614216E3,5.4630035E2,4.4532467E1,6.2133698E1,1.3195828E1,1.342504E1,3.345412E0,1.2477688E1,1.8228056E0,3.6583942E1,7.5838486E1,1.4845486E0,1.7607033E1,6.0328474E0,1.4312332E0,5.8457527E0,1.7718102E1,5.082722E0,6.902692E0,5.9236193E0,1.8803117E0,5.546682E1,3.6523037E1,1.3056388E0,1.7518055E0,2.0706244E1,7.4862695E0,9.039312E2,1.3101521E2,9.9248834E2,6.893323E1,5.2184845E2,2.4451925E1,1.0945952E0,4.343787E1,5.053411E1,1.15995865E1,5.9013033E0,7.294525E0],"tree_param":{"num_deleted":"0","num_feature":"17","num_nodes":"81","size_leaf_vector":"1"}},{"base_weights":[3.6397695E-3,-1.1340259E-1,6.597974E-2,-9.3992345E-2,-3.1167817E-1,-4.377747E-1,7.6572426E-2,-5.2090935E-2,-1.6912273E-1,-3.84558E-1,4.0302828E-2,-5.1102436E-1,3.7624595E-1,4.452064E-2,2.1420605E-1,-4.0854865E-1,-3.422771E-2,-1.21899284E-1,-2.7800846E-1,-8.062894E-1,-3.3405972E-1,1.20351814E-1,-1.38859255E-2,-1.08742416E-1,-6.766998E-1,2.6546042E-2,-1.9808023E-3,8.389502E-2,-6.821568E-2,1.6455948E-1,1.1512859E0,-3.0460802E-1,-9.214987E-1,8.566458E-2,-5.4877408E-2,-1.481617E-1,4.253755E-1,-4.2737484E-1,-1.6415352E-1,-1.0997875E0,-4.934165E-3,1.0380624E-1,-3.6863697E-1,-8.870863E-2,4.053231E-1,-1.5536232E-2,-1.970248E-2,-5.135671E-1,-1.0930194E0,1.00466184E-1,-8.0791354E-2,-8.023593E-2,5.0687975E-1,-9.094593E-3,2.672327E-1,6.900759E-1,1.14429146E-1,-1.0211212E-2,4.5921635E-3,-7.844506E-3,-3.4409415E-2,6.983602E-3,-1.1642033E-3,-2.6643155E-3,1.6730472E-3,-2.0844021E-3,-8.812153E-3,1.7565102E-3,2.4659585E-2,-1.390118E-2,1.2823421E-2,3.7537473E-3,-7.4749496E-3,-4.5526884E-2,-4.2684535E-3,1.323878E-2,-1.0304652E-3,-1.2789321E-2,-3.0001327E-3,-0E0,-3.6318596E-3,1.9329244E-2,-4.6811798E-3,-4.594194E-3,1.4064903E-2,-2.5893582E-2,-7.382484E-3,-3.710039E-2,-3.1066113E-3,2.074165E-3,5.864686E-3,-1.7310549E-2,3.9683087E-4,-2.611785E-3,2.5842289E-2,-2.2230145E-4,3.623783E-2,9.028225E-3,-1.6924937E-3,1.0002868E-2,-3.2358567E-4,3.4354907E-2,1.9336558E-3],"categories":[],"categories_nodes":[],"categories_segments":[],"categories_sizes":[],"default_left":[0,0,0,0,0,0,0,0,0,0,0,0,0,0,0,0,0,0,0,0,0,0,0,0,0,0,0,0,0,0,0,0,0,0,0,0,0,0,0,0,0,0,0,0,0,0,0,0,0,0,0,0,0,0,0,0,0,0,0,0,0,0,0,0,0,0,0,0,0,0,0,0,0,0,0,0,0,0,0,0,0,0,0,0,0,0,0,0,0,0,0,0,0,0,0,0,0,0,0,0,0,0,0],"id":3,"left_children":[1,3,5,7,9,11,13,15,17,19,21,23,25,27,29,31,33,35,37,39,41,43,-1,45,47,-1,-1,49,51,53,55,57,59,61,63,65,67,69,71,73,-1,75,77,79,81,-1,83,85,87,89,91,93,95,97,99,101,-1,-1,-1,-1,-1,-1,-1,-1,-1,-1,-1,-1,-1,-1,-1,-1,-1,-1,-1,-1,-1,-1,-1,-1,-1,-1,-1,-1,-1,-1,-1,-1,-1,-1,-1,-1,-1,-1,-1,-1,-1,-1,-1,-1,-1,-1,-1],"loss_changes":[2.2876234E1,4.122266E0,1.0918427E1,3.0983496E0,2.5185661E0,2.7162457E0,8.811763E0,4.0196905E0,1.7494488E0,1.3215694E0,7.133386E-1,2.458107E0,1.0264208E0,7.236312E0,1.726321E1,1.2070599E0,1.5148683E0,3.6249359E0,1.6707106E0,1.1321917E0,1.1762714E0,1.0080324E0,0E0,4.0203753E-1,1.1370115E0,0E0,0E0,3.3070507E0,2.9114056E0,6.4508514E0,1.9945444E1,5.090494E-1,2.1899557E-1,1.6671497E0,1.9709241E0,2.683488E0,1.5398567E0,1.5795965E0,1.5699093E0,1.602634E0,0E0,3.3288866E-1,9.656E-1,2.258294E-2,1.0967536E0,0E0,8.059233E-1,1.7079802E0,6.828027E-1,3.2305183E0,5.217094E0,2.65674E0,3.2278085E0,1.9651083E0,4.2093105E0,4.7120447E0,0E0,0E0,0E0,0E0,0E0,0E0,0E0,0E0,0E0,0E0,0E0,0E0,0E0,0E0,0E0,0E0,0E0,0E0,0E0,0E0,0E0,0E0,0E0,0E0,0E0,0E0,0E0,0E0,0E0,0E0,0E0,0E0,0E0,0E0,0E0,0E0,0E0,0E0,0E0,0E0,0E0,0E0,0E0,0E0,0E0,0E0,0E0],"parents":[2147483647,0,0,1,1,2,2,3,3,4,4,5,5,6,6,7,7,8,8,9,9,10,10,11,11,12,12,13,13,14,14,15,15,16,16,17,17,18,18,19,19,20,20,21,21,23,23,24,24,27,27,28,28,29,29,30,30,31,31,32,32,33,33,34,34,35,35,36,36,37,37,38,38,39,39,41,41,42,42,43,43,44,44,46,46,47,47,48,48,49,49,50,50,51,51,52,52,53,53,54,54,55,55],"right_children":[2,4,6,8,10,12,14,16,18,20,22,24,26,28,30,32,34,36,38,40,42,44,-1,46,48,-1,-1,50,52,54,56,58,60,62,64,66,68,70,72,74,-1,76,78,80,82,-1,84,86,88,90,92,94,96,98,100,102,-1,-1,-1,-1,-1,-1,-1,-1,-1,-1,-1,-1,-1,-1,-1,-1,-1,-1,-1,-1,-1,-1,-1,-1,-1,-1,-1,-1,-1,-1,-1,-1,-1,-1,-1,-1,-1,-1,-1,-1,-1,-1,-1,-1,-1,-1,-1],"split_conditions":[3.52827E-2,5.4158E4,1.2709855E-3,5.654906E-3,9.806806E-3,1E0,1E0,6.244562E-4,4.189E3,1.6081621E-3,1E0,7.23E2,1.214662E-3,1E0,1.2525855E-2,1.3608351E-2,1.5733921E-3,3.534E3,9.795447E-3,8.8E2,2.3477878E-3,9.1184E4,-1.38859255E-2,5.288207E-2,2.8462997E-1,2.6546042E-2,-1.9808023E-3,1.0483333E-2,7.6042014E-1,3.5839404E-3,1E0,5.1232134E-3,8.68E2,7.85E2,4.2834114E-3,1E0,1E0,4.4009E4,1.4601602E-2,1E0,-4.934165E-3,5.7E2,1E0,2.2044382E-3,6.98781E5,-1.5536232E-2,3.65E2,1.0276172E-1,9.1184E4,3.3455473E-1,1.1121259E-2,2.3333794E-2,5.4510636E-3,1.8847182E-3,4.450034E-1,1.8833E4,1.14429146E-1,-1.0211212E-2,4.5921635E-3,-7.844506E-3,-3.4409415E-2,6.983602E-3,-1.1642033E-3,-2.6643155E-3,1.6730472E-3,-2.0844021E-3,-8.812153E-3,1.7565102E-3,2.4659585E-2,-1.390118E-2,1.2823421E-2,3.7537473E-3,-7.4749496E-3,-4.5526884E-2,-4.2684535E-3,1.323878E-2,-1.0304652E-3,-1.2789321E-2,-3.0001327E-3,-0E0,-3.6318596E-3,1.9329244E-2,-4.6811798E-3,-4.594194E-3,1.4064903E-2,-2.5893582E-2,-7.382484E-3,-3.710039E-2,-3.1066113E-3,2.074165E-3,5.864686E-3,-1.7310549E-2,3.9683087E-4,-2.611785E-3,2.5842289E-2,-2.2230145E-4,3.623783E-2,9.028225E-3,-1.6924937E-3,1.0002868E-2,-3.2358567E-4,3.4354907E-2,1.9336558E-3],"split_indices":[2,1,0,0,2,7,13,0,1,0,15,1,0,7,0,2,0,1,0,4,0,1,0,2,2,0,0,0,2,0,7,2,1,4,0,7,10,1,0,7,0,4,8,0,1,0,1,2,1,2,0,0,0,0,2,1,0,0,0,0,0,0,0,0,0,0,0,0,0,0,0,0,0,0,0,0,0,0,0,0,0,0,0,0,0,0,0,0,0,0,0,0,0,0,0,0,0,0,0,0,0,0,0],"split_type":[0,0,0,0,0,0,0,0,0,0,0,0,0,0,0,0,0,0,0,0,0,0,0,0,0,0,0,0,0,0,0,0,0,0,0,0,0,0,0,0,0,0,0,0,0,0,0,0,0,0,0,0,0,0,0,0,0,0,0,0,0,0,0,0,0,0,0,0,0,0,0,0,0,0,0,0,0,0,0,0,0,0,0,0,0,0,0,0,0,0,0,0,0,0,0,0,0,0,0,0,0,0,0],"sum_hessian":[3.1338938E3,1.0882666E3,2.0456272E3,9.930318E2,9.523474E1,4.1103542E1,2.0045237E3,6.394338E2,3.5359802E2,7.905705E1,1.6177692E1,3.8164387E1,2.9391558E0,1.6275531E3,3.7697055E2,2.9203985E1,6.102298E2,2.4875262E2,1.0484541E2,6.6417994E0,7.241525E1,1.4785082E1,1.3926104E0,1.1791939E1,2.6372448E1,1.0067495E0,1.9324062E0,1.2071024E3,4.2045068E2,3.5922128E2,1.7749254E1,2.5770761E1,3.4332223E0,8.8486336E1,5.2174347E2,2.382324E2,1.0520207E1,4.3779316E1,6.1066097E1,3.9610717E0,2.6807277E0,4.94174E0,6.747351E1,8.723299E0,6.0617833E0,1.0460626E0,1.0745876E1,2.072518E1,5.6472673E0,1.0976511E3,1.0945132E2,4.1285583E2,7.5948606E0,1.3345038E2,2.2577092E2,1.6234308E1,1.514946E0,2.4343243E1,1.427519E0,1.5370964E0,1.8961258E0,4.052269E1,4.796365E1,4.0013123E2,1.2161221E2,1.5605284E2,8.217957E1,6.1925154E0,4.3276925E0,4.256189E1,1.2174296E0,1.3495436E1,4.757066E1,2.2778554E0,1.6832163E0,1.0082991E0,3.933441E0,5.4758068E1,1.2715443E1,2.9617205E0,5.761578E0,4.273033E0,1.78875E0,9.14048E0,1.6053962E0,7.8569484E0,1.2868232E1,4.624872E0,1.0223948E0,8.2759064E2,2.700605E2,1.678539E1,9.2665924E1,4.108921E2,1.9637568E0,4.8694277E0,2.7254329E0,1.6682188E1,1.16768196E2,1.8248228E2,4.3288628E1,8.824745E0,7.4095626E0],"tree_param":{"num_deleted":"0","num_feature":"17","num_nodes":"103","size_leaf_vector":"1"}},{"base_weights":[-4.535246E-3,-4.0897414E-1,3.298109E-3,-5.4926705E-2,-5.1320374E-1,-1.9201193E-2,9.585279E-2,-1.92779E-1,2.482108E-1,-2.9833683E-1,-9.021579E-1,5.047306E-3,-1.1155865E-1,3.1337954E-2,2.707285E-1,5.027968E-3,-2.986285E-1,1.2708757E-2,-0E0,-1.45264575E-2,-2.4116741E-1,-5.9875965E-1,-4.3947186E-2,3.448028E-2,-7.245431E-2,-7.675051E-2,-3.2115945E-1,1.078369E-1,-4.9070857E-2,-4.0858556E-3,4.5243296E-1,-4.312596E-3,-1.8060492E-2,8.2903E-3,-3.0703813E-1,-2.236907E-2,-3.5634282E-1,5.0884306E-2,-1.8817419E-1,-9.308191E-2,3.577549E-1,-8.904755E-2,4.8164314E-1,-3.6873963E-1,9.440689E-2,3.3273287E-2,3.3222178E-1,-2.6067683E-1,-1.992941E-2,-5.23201E-1,6.4670324E-2,5.6462574E-1,-0E0,-6.547263E-3,-1.3213822E-2,-1.404869E-3,-1.637868E-2,1.2887742E-3,2.860872E-2,-3.0232694E-2,-4.285525E-3,-3.3276244E-3,4.619054E-3,3.9872676E-2,1.369102E-3,-1.6993552E-3,-7.0863315E-3,3.882784E-2,-1.3169344E-2,-1.3181063E-2,-3.9901803E-3,-5.0922073E-3,8.349793E-3,2.885448E-2,4.0655388E-4,4.967728E-3,1.8481709E-2,-3.723504E-3,-3.265251E-2,-1.7540812E-3,3.634592E-3,-2.127785E-2,-3.5185746E-3,1.8075168E-2,-0E0,2.8902175E-2,1.0470746E-2,-5.394618E-3,1.6351225E-2],"categories":[],"categories_nodes":[],"categories_segments":[],"categories_sizes":[],"default_left":[0,0,0,0,0,0,0,0,0,0,0,0,0,0,0,0,0,0,0,0,0,0,0,0,0,0,0,0,0,0,0,0,0,0,0,0,0,0,0,0,0,0,0,0,0,0,0,0,0,0,0,0,0,0,0,0,0,0,0,0,0,0,0,0,0,0,0,0,0,0,0,0,0,0,0,0,0,0,0,0,0,0,0,0,0,0,0,0,0],"id":4,"left_children":[1,3,5,7,9,11,13,15,17,19,21,23,25,27,29,-1,31,-1,-1,-1,33,35,-1,37,39,41,43,45,47,49,51,-1,-1,-1,53,-1,55,57,59,61,63,65,67,69,71,73,75,77,79,81,83,85,87,-1,-1,-1,-1,-1,-1,-1,-1,-1,-1,-1,-1,-1,-1,-1,-1,-1,-1,-1,-1,-1,-1,-1,-1,-1,-1,-1,-1,-1,-1,-1,-1,-1,-1,-1,-1],"loss_changes":[9.963973E0,2.1201677E0,6.4089637E0,6.6616666E-1,3.4408026E0,5.5475564E0,6.7530355E0,4.8473695E-1,2.2245154E-1,1.4202118E-1,1.5881939E0,4.4653745E0,3.692762E0,2.7257283E0,8.120477E0,0E0,2.672512E-1,0E0,0E0,0E0,9.827349E-1,5.0418377E-2,0E0,5.1851244E0,4.7842093E0,3.0480106E0,1.4981217E0,3.7520216E0,1.2938061E0,2.4042115E0,4.970051E0,0E0,0E0,0E0,1.2152028E-1,0E0,3.077594E-1,9.335235E0,3.3548272E0,2.2812428E0,7.264772E0,2.0307841E0,7.7863493E0,9.761839E-1,4.4872805E-1,3.0373735E0,2.4777355E0,2.6318984E0,1.0374578E0,4.3059278E-1,2.062915E0,6.2585506E0,2.078831E0,0E0,0E0,0E0,0E0,0E0,0E0,0E0,0E0,0E0,0E0,0E0,0E0,0E0,0E0,0E0,0E0,0E0,0E0,0E0,0E0,0E0,0E0,0E0,0E0,0E0,0E0,0E0,0E0,0E0,0E0,0E0,0E0,0E0,0E0,0E0,0E0],"parents":[2147483647,0,0,1,1,2,2,3,3,4,4,5,5,6,6,7,7,8,8,9,9,10,10,11,11,12,12,13,13,14,14,16,16,20,20,21,21,23,23,24,24,25,25,26,26,27,27,28,28,29,29,30,30,34,34,36,36,37,37,38,38,39,39,40,40,41,41,42,42,43,43,44,44,45,45,46,46,47,47,48,48,49,49,50,50,51,51,52,52],"right_children":[2,4,6,8,10,12,14,16,18,20,22,24,26,28,30,-1,32,-1,-1,-1,34,36,-1,38,40,42,44,46,48,50,52,-1,-1,-1,54,-1,56,58,60,62,64,66,68,70,72,74,76,78,80,82,84,86,88,-1,-1,-1,-1,-1,-1,-1,-1,-1,-1,-1,-1,-1,-1,-1,-1,-1,-1,-1,-1,-1,-1,-1,-1,-1,-1,-1,-1,-1,-1,-1,-1,-1,-1,-1,-1],"split_conditions":[6.244562E-4,1E0,1E0,5.025E3,1E0,2.163E4,6.3095377E-3,6.33E2,1.0612E4,2.2E1,1.2293E4,1E0,1.0483333E-2,5.7E2,2.011E3,5.027968E-3,1E0,1.2708757E-2,-0E0,-1.45264575E-2,1.36E2,2.146E3,-4.3947186E-2,7.6E2,6.45E2,9.943676E-3,1E0,1E0,1.48E2,5.65E2,1.670929E-2,-4.312596E-3,-1.8060492E-2,8.2903E-3,5.025E3,-2.236907E-2,3.598E3,6.85E2,8.2E2,1.2851E4,7.85E2,1.70334E5,1E0,2.0023556E-2,3.2274E4,1.33474E-3,4.2059342E-3,5.2928114E-3,4.9837176E-3,1.4161319E-2,6.5183984E-3,9.077E3,3.7063E4,-6.547263E-3,-1.3213822E-2,-1.404869E-3,-1.637868E-2,1.2887742E-3,2.860872E-2,-3.0232694E-2,-4.285525E-3,-3.3276244E-3,4.619054E-3,3.9872676E-2,1.369102E-3,-1.6993552E-3,-7.0863315E-3,3.882784E-2,-1.3169344E-2,-1.3181063E-2,-3.9901803E-3,-5.0922073E-3,8.349793E-3,2.885448E-2,4.0655388E-4,4.967728E-3,1.8481709E-2,-3.723504E-3,-3.265251E-2,-1.7540812E-3,3.634592E-3,-2.127785E-2,-3.5185746E-3,1.8075168E-2,-0E0,2.8902175E-2,1.0470746E-2,-5.394618E-3,1.6351225E-2],"split_indices":[0,12,13,1,9,1,0,1,1,1,1,7,0,4,1,0,8,0,0,0,1,1,0,4,4,0,8,7,1,4,0,0,0,0,1,0,1,4,4,1,4,1,12,0,1,0,0,0,0,0,0,1,1,0,0,0,0,0,0,0,0,0,0,0,0,0,0,0,0,0,0,0,0,0,0,0,0,0,0,0,0,0,0,0,0,0,0,0,0],"split_type":[0,0,0,0,0,0,0,0,0,0,0,0,0,0,0,0,0,0,0,0,0,0,0,0,0,0,0,0,0,0,0,0,0,0,0,0,0,0,0,0,0,0,0,0,0,0,0,0,0,0,0,0,0,0,0,0,0,0,0,0,0,0,0,0,0,0,0,0,0,0,0,0,0,0,0,0,0,0,0,0,0,0,0,0,0,0,0,0,0],"sum_hessian":[3.13085E3,5.8757095E1,3.072093E3,1.3929094E1,4.4828003E1,2.4711003E3,6.0099255E2,1.0051909E1,3.8771853E0,3.0180017E1,1.46479845E1,1.9571201E3,5.139803E2,4.403065E2,1.6068608E2,1.9351932E0,8.116716E0,1.9139243E0,1.9632609E0,4.9304233E0,2.5249594E1,1.0973474E1,3.6745105E0,1.4197744E3,5.373457E2,4.4236118E2,7.16191E1,2.261016E2,2.1420491E2,6.4126595E1,9.655949E1,6.5675244E0,1.549192E0,2.3187852E0,2.2930809E1,5.2837753E0,5.689698E0,1.3234873E3,9.628709E1,5.1372955E2,2.361613E1,4.33827E2,8.534204E0,6.4578514E1,7.040583E0,1.7090381E2,5.5197784E1,2.4551481E1,1.8965343E2,6.8971815E0,5.7229412E1,7.723047E1,1.9329018E1,1.5800444E1,7.1303663E0,2.8355188E0,2.8541794E0,1.3131178E3,1.0369518E1,3.817319E0,9.2469765E1,4.80024E2,3.3705574E1,4.872834E0,1.8743296E1,3.572355E2,7.659149E1,4.375119E0,4.1590843E0,4.869943E1,1.5879087E1,2.6984382E0,4.342145E0,2.455416E0,1.684484E2,3.5999386E1,1.91984E1,2.2165403E1,2.3860765E0,1.4997786E2,3.967557E1,4.0480094E0,2.8491724E0,5.353615E0,5.1875797E1,2.5722069E1,5.1508396E1,1.5081686E1,4.2473316E0],"tree_param":{"num_deleted":"0","num_feature":"17","num_nodes":"89","size_leaf_vector":"1"}},{"base_weights":[-2.2477824E-4,-1.0007376E-1,5.2635364E-2,3.288763E-1,-1.0791932E-1,1.7920323E-2,2.0862803E-1,8.129788E-1,-0E0,-4.4110763E-1,-9.799849E-2,-4.3241423E-1,2.9818827E-2,1.5214945E-1,7.948103E-1,-2.7363324E-1,2.1447837E0,2.8862286E-1,-5.464959E-1,-3.0422163E-1,-4.0805247E-2,-5.9482455E-2,-1.6241339E-1,-2.877874E-1,-8.868895E-1,-2.0602282E-2,7.7373E-2,1.6898288E-1,-4.3408647E-1,3.2020855E-1,1.6464188E0,1.2466641E-1,-3.0289048E-2,7.861038E-2,1.4796003E-2,-4.482274E-3,5.8140963E-1,-2.500345E-2,2.544859E-3,-2.0918304E-1,-7.495803E-1,-2.3539975E-2,-1.543387E-1,-2.1645454E-1,-9.109074E-2,-1.2035458E-1,-8.968352E-1,-7.033661E-4,-1.0916427E0,7.8466153E-1,-2.5013495E-2,1.4075922E-2,2.0371805E-1,1.2555699E-1,5.210922E-1,4.885994E-3,-8.741566E-1,5.3936116E-2,5.835137E-2,2.7488074E0,1.6086027E-1,1.1314409E-2,-2.4333966E-3,-2.221637E-3,2.1742354E-3,3.0063443E-2,-0E0,-8.338497E-3,3.1324031E-3,-7.360318E-3,-2.7421102E-2,-1.3018269E-3,2.774217E-2,-4.6211734E-2,-3.0476847E-3,-6.872365E-3,4.1810432E-3,-8.3279556E-5,-6.966472E-3,-6.7986166E-3,9.3524874E-4,-4.4318106E-2,-8.340248E-3,-3.6514387E-2,-2.7090742E-3,3.0916044E-2,2.0119085E-3,-9.155934E-4,1.5608628E-2,1.2773171E-3,-6.2150974E-3,9.022698E-3,3.253269E-3,-1.0268098E-3,5.402745E-3,2.2615507E-2,7.013882E-3,-4.9855104E-3,1.3532393E-2,-3.936152E-2,-2.5887147E-3,-7.821996E-3,1.32135395E-2,1.036058E-1,1.6613679E-2,-5.679685E-3,2.6665702E-2],"categories":[],"categories_nodes":[],"categories_segments":[],"categories_sizes":[],"default_left":[0,0,0,0,0,0,0,0,0,0,0,0,0,0,0,0,0,0,0,0,0,0,0,0,0,0,0,0,0,0,0,0,0,0,0,0,0,0,0,0,0,0,0,0,0,0,0,0,0,0,0,0,0,0,0,0,0,0,0,0,0,0,0,0,0,0,0,0,0,0,0,0,0,0,0,0,0,0,0,0,0,0,0,0,0,0,0,0,0,0,0,0,0,0,0,0,0,0,0,0,0,0,0,0,0,0,0],"id":5,"left_children":[1,3,5,7,9,11,13,15,17,19,21,23,25,27,29,31,33,35,37,39,-1,41,43,45,47,49,51,53,55,57,59,61,-1,-1,-1,63,65,-1,-1,67,69,71,73,75,77,79,81,-1,83,85,87,89,91,93,95,97,99,101,-1,103,105,-1,-1,-1,-1,-1,-1,-1,-1,-1,-1,-1,-1,-1,-1,-1,-1,-1,-1,-1,-1,-1,-1,-1,-1,-1,-1,-1,-1,-1,-1,-1,-1,-1,-1,-1,-1,-1,-1,-1,-1,-1,-1,-1,-1,-1,-1],"loss_changes":[1.6494658E1,3.6550837E0,1.1032415E1,3.125613E0,3.418785E0,8.931863E0,1.2070908E1,1.2224989E1,2.1449323E0,3.2163882E0,2.5346994E0,2.4463186E0,3.9159067E0,3.401062E0,1.229965E1,1.7396212E0,1.3100471E0,8.17215E-1,1.0009576E0,9.1759396E-1,0E0,2.1944435E0,1.4355602E0,3.2760532E0,1.5788889E0,2.7533994E0,6.6942616E0,4.9356174E0,1.9460777E0,9.216974E0,1.7632227E1,2.772619E-1,0E0,0E0,0E0,3.3523157E-2,1.0794042E0,0E0,0E0,5.716649E-1,1.5589237E-2,8.862644E0,1.2668041E1,1.0193577E0,2.0787246E0,4.7901082E-1,1.9593225E0,0E0,7.3080635E-1,5.651312E-1,2.3322504E0,3.5320177E0,2.513485E0,2.6043034E0,2.1191273E0,5.3758895E-1,1.4423797E0,2.5641694E0,0E0,7.488636E0,1.7366718E0,0E0,0E0,0E0,0E0,0E0,0E0,0E0,0E0,0E0,0E0,0E0,0E0,0E0,0E0,0E0,0E0,0E0,0E0,0E0,0E0,0E0,0E0,0E0,0E0,0E0,0E0,0E0,0E0,0E0,0E0,0E0,0E0,0E0,0E0,0E0,0E0,0E0,0E0,0E0,0E0,0E0,0E0,0E0,0E0,0E0,0E0],"parents":[2147483647,0,0,1,1,2,2,3,3,4,4,5,5,6,6,7,7,8,8,9,9,10,10,11,11,12,12,13,13,14,14,15,15,16,16,17,17,18,18,19,19,21,21,22,22,23,23,24,24,25,25,26,26,27,27,28,28,29,29,30,30,31,31,35,35,36,36,39,39,40,40,41,41,42,42,43,43,44,44,45,45,46,46,48,48,49,49,50,50,51,51,52,52,53,53,54,54,55,55,56,56,57,57,59,59,60,60],"right_children":[2,4,6,8,10,12,14,16,18,20,22,24,26,28,30,32,34,36,38,40,-1,42,44,46,48,50,52,54,56,58,60,62,-1,-1,-1,64,66,-1,-1,68,70,72,74,76,78,80,82,-1,84,86,88,90,92,94,96,98,100,102,-1,104,106,-1,-1,-1,-1,-1,-1,-1,-1,-1,-1,-1,-1,-1,-1,-1,-1,-1,-1,-1,-1,-1,-1,-1,-1,-1,-1,-1,-1,-1,-1,-1,-1,-1,-1,-1,-1,-1,-1,-1,-1,-1,-1,-1,-1,-1,-1],"split_conditions":[3.52827E-2,7.5E-1,1E0,6.55E2,6.244562E-4,1.2709855E-3,1.0207658E-2,1.1E1,2.8812797E-3,1.0612E4,5.6173587E-3,3.1136483E-1,1E0,9.219301E-3,2.610966E-1,3.992692E-3,5.68E2,1.40981E-3,5.1232134E-3,1.3608351E-2,-4.0805247E-2,7.6E2,1E0,1.3196E4,5.7E2,3.7593983E-2,3.1136483E-1,7.134923E-3,1.863E3,1E0,5.3763443E-1,1E0,-3.0289048E-2,7.861038E-2,1.4796003E-2,7.520556E-4,2.1429807E-3,-2.500345E-2,2.544859E-3,8.9E2,8.68E2,7.15E2,8.2E2,2.1648E5,4.116E3,1.4548981E-1,3.9858E4,-7.033661E-4,9.1184E4,3.09E3,2.0918138E-2,9.317521E-3,1.1053E4,9.0456806E-2,3.1895503E-1,9.649176E-3,1E0,5.7E2,5.835137E-2,1.670929E-2,8.971705E-1,1.1314409E-2,-2.4333966E-3,-2.221637E-3,2.1742354E-3,3.0063443E-2,-0E0,-8.338497E-3,3.1324031E-3,-7.360318E-3,-2.7421102E-2,-1.3018269E-3,2.774217E-2,-4.6211734E-2,-3.0476847E-3,-6.872365E-3,4.1810432E-3,-8.3279556E-5,-6.966472E-3,-6.7986166E-3,9.3524874E-4,-4.4318106E-2,-8.340248E-3,-3.6514387E-2,-2.7090742E-3,3.0916044E-2,2.0119085E-3,-9.155934E-4,1.5608628E-2,1.2773171E-3,-6.2150974E-3,9.022698E-3,3.253269E-3,-1.0268098E-3,5.402745E-3,2.2615507E-2,7.013882E-3,-4.9855104E-3,1.3532393E-2,-3.936152E-2,-2.5887147E-3,-7.821996E-3,1.32135395E-2,1.036058E-1,1.6613679E-2,-5.679685E-3,2.6665702E-2],"split_indices":[2,3,13,1,0,0,0,1,0,1,0,2,6,0,2,0,1,0,2,2,0,4,6,1,4,2,2,0,1,8,2,5,0,0,0,0,0,0,0,4,1,4,4,1,1,2,1,0,1,1,0,0,1,2,2,0,9,4,0,0,2,0,0,0,0,0,0,0,0,0,0,0,0,0,0,0,0,0,0,0,0,0,0,0,0,0,0,0,0,0,0,0,0,0,0,0,0,0,0,0,0,0,0,0,0,0,0],"split_type":[0,0,0,0,0,0,0,0,0,0,0,0,0,0,0,0,0,0,0,0,0,0,0,0,0,0,0,0,0,0,0,0,0,0,0,0,0,0,0,0,0,0,0,0,0,0,0,0,0,0,0,0,0,0,0,0,0,0,0,0,0,0,0,0,0,0,0,0,0,0,0,0,0,0,0,0,0,0,0,0,0,0,0,0,0,0,0,0,0,0,0,0,0,0,0,0,0,0,0,0,0,0,0,0,0,0,0],"sum_hessian":[3.1222566E3,1.0811123E3,2.0411444E3,1.845461E1,1.0626577E3,1.6710256E3,3.7011874E2,6.912759E0,1.1541852E1,2.917804E1,1.0334796E3,4.188837E1,1.6291372E3,3.3889627E2,3.1222456E1,4.203005E0,2.7097542E0,7.820089E0,3.7217631E0,2.6648783E1,2.529256E0,6.4893396E2,3.845457E2,3.3182144E1,8.706227E0,7.899873E2,8.3914996E2,3.302944E2,8.601886E0,2.1008076E1,1.021438E1,3.177951E0,1.0250539E0,1.6014994E0,1.1082547E0,4.229318E0,3.5907705E0,2.4475367E0,1.2742264E0,2.3358387E1,3.290395E0,4.7228165E2,1.7665233E2,2.1682245E2,1.6772324E2,2.709522E1,6.0869236E0,1.9760644E0,6.7301626E0,3.2167864E0,7.867705E2,5.603336E2,2.788163E2,2.954918E2,3.480262E1,4.687619E0,3.9142663E0,1.899069E1,2.0173862E0,5.3365893E0,4.877791E0,1.2713089E0,1.9066421E0,2.9234946E0,1.3058236E0,1.6201617E0,1.970609E0,1.9512213E1,3.8461754E0,1.571614E0,1.7187811E0,4.6363416E2,8.647482E0,5.3729634E0,1.7127937E2,2.1000876E2,6.813697E0,1.0422712E2,6.349612E1,1.6022915E1,1.1072307E1,2.3416977E0,3.7452261E0,5.7003255E0,1.0298369E0,1.9672844E0,1.249502E0,7.800215E2,6.749007E0,4.9750378E2,6.2829857E1,1.3654187E2,1.4227444E2,7.4817665E1,2.2067412E2,1.8136768E1,1.6665852E1,3.6801088E0,1.0075105E0,2.0067003E0,1.9075661E0,1.0505042E1,8.485648E0,3.5711513E0,1.7654378E0,3.7003932E0,1.1773977E0],"tree_param":{"num_deleted":"0","num_feature":"17","num_nodes":"107","size_leaf_vector":"1"}},{"base_weights":[-7.0372117E-3,-1.06271304E-1,4.346189E-2,-6.326839E-2,-1.7888218E-1,-4.378736E-1,5.166511E-2,-4.343786E-1,-4.7440503E-2,-6.0535634E-1,-1.6857575E-1,7.117181E-2,-5.6020147E-1,2.463387E-2,1.6437279E-1,-4.994859E-1,4.38895E-3,-7.956372E-2,5.01989E-2,6.935476E-3,-9.045781E-1,-2.2416015E-1,-9.553389E-2,4.0661566E-2,-3.260624E-1,-3.7877664E-1,-7.9933333E-1,5.4868862E-2,-6.0525995E-2,7.657152E-2,5.306236E-1,-5.406156E-1,-0E0,3.4490575E-3,-1.4684099E-3,-7.064168E-2,-4.6389505E-1,3.6458647E-1,-0E0,-3.3733495E-2,-4.365181E-3,2.746591E-1,-2.3520105E-1,2.87071E-2,-2.6051262E-1,-1.2517992E-3,-1.5837757E-2,-1.8681115E-2,-2.2053142E-1,-1.9824451E-3,-9.2768973E-1,6.0962614E-2,-1.6334139E-1,-7.0607625E-2,2.9690707E-1,-4.027808E-2,1.5804726E-1,3.8354817E-1,1.4223741E0,-1.7039832E-2,-3.7134232E-3,-2.5006472E-3,7.586528E-3,-1.8000169E-2,-2.3229949E-3,-3.1058788E-3,2.0378789E-2,-2.5838753E-3,4.925273E-3,2.0361768E-2,-1.6924917E-3,-9.876366E-3,-5.129527E-3,3.893192E-3,-5.2442183E-3,-6.856161E-3,-2.9633898E-2,-6.1438425E-4,-1.910357E-2,-3.3564236E-2,-6.5244315E-3,1.7493297E-3,4.0661734E-2,-8.4386265E-4,-2.372607E-2,-7.5994205E-4,-3.945311E-3,2.4314648E-2,-9.665342E-4,1.7751049E-3,-3.0355998E-3,1.0189593E-2,-2.6965936E-4,1.5600908E-2,-3.882435E-3,8.686271E-2,2.3944017E-2],"categories":[],"categories_nodes":[],"categories_segments":[],"categories_sizes":[],"default_left":[0,0,0,0,0,0,0,0,0,0,0,0,0,0,0,0,0,0,0,0,0,0,0,0,0,0,0,0,0,0,0,0,0,0,0,0,0,0,0,0,0,0,0,0,0,0,0,0,0,0,0,0,0,0,0,0,0,0,0,0,0,0,0,0,0,0,0,0,0,0,0,0,0,0,0,0,0,0,0,0,0,0,0,0,0,0,0,0,0,0,0,0,0,0,0,0,0],"id":6,"left_children":[1,3,5,7,9,11,13,15,17,19,21,23,25,27,29,31,33,35,37,-1,39,41,43,-1,45,47,49,51,53,55,57,59,-1,-1,-1,61,63,65,67,-1,-1,69,71,73,75,-1,-1,-1,77,-1,79,81,83,85,87,89,91,93,95,-1,-1,-1,-1,-1,-1,-1,-1,-1,-1,-1,-1,-1,-1,-1,-1,-1,-1,-1,-1,-1,-1,-1,-1,-1,-1,-1,-1,-1,-1,-1,-1,-1,-1,-1,-1,-1,-1],"loss_changes":[1.56118555E1,3.2459335E0,8.130865E0,3.8222966E0,1.532485E0,2.235592E0,6.16111E0,8.149047E-1,2.0040007E0,2.4229746E0,1.4971437E0,4.324209E0,7.97101E-1,4.222992E0,1.24964485E1,4.4610882E-1,3.7265543E-2,1.5605836E0,2.4647884E0,0E0,8.122158E-1,1.2466669E0,3.4650705E0,0E0,2.8862745E-1,4.7692657E-1,8.717451E-1,1.609993E0,1.544461E0,3.039822E0,9.158445E0,1.0659313E-1,0E0,0E0,0E0,1.9405284E0,4.3611407E-1,3.2994063E0,1.9548228E0,0E0,0E0,7.5983834E-1,1.1700525E0,1.9954883E0,1.3367367E0,0E0,0E0,0E0,9.8492765E-1,0E0,8.640137E-1,3.8272133E0,2.6725852E0,1.1346223E0,2.079928E0,8.0176425E-1,5.7301664E0,4.738324E0,6.703327E0,0E0,0E0,0E0,0E0,0E0,0E0,0E0,0E0,0E0,0E0,0E0,0E0,0E0,0E0,0E0,0E0,0E0,0E0,0E0,0E0,0E0,0E0,0E0,0E0,0E0,0E0,0E0,0E0,0E0,0E0,0E0,0E0,0E0,0E0,0E0,0E0,0E0,0E0],"parents":[2147483647,0,0,1,1,2,2,3,3,4,4,5,5,6,6,7,7,8,8,9,9,10,10,11,11,12,12,13,13,14,14,15,15,16,16,17,17,18,18,20,20,21,21,22,22,24,24,25,25,26,26,27,27,28,28,29,29,30,30,31,31,35,35,36,36,37,37,38,38,41,41,42,42,43,43,44,44,48,48,50,50,51,51,52,52,53,53,54,54,55,55,56,56,57,57,58,58],"right_children":[2,4,6,8,10,12,14,16,18,20,22,24,26,28,30,32,34,36,38,-1,40,42,44,-1,46,48,50,52,54,56,58,60,-1,-1,-1,62,64,66,68,-1,-1,70,72,74,76,-1,-1,-1,78,-1,80,82,84,86,88,90,92,94,96,-1,-1,-1,-1,-1,-1,-1,-1,-1,-1,-1,-1,-1,-1,-1,-1,-1,-1,-1,-1,-1,-1,-1,-1,-1,-1,-1,-1,-1,-1,-1,-1,-1,-1,-1,-1,-1,-1],"split_conditions":[3.3272333E-2,5.6173587E-3,1.214662E-3,6.244562E-4,5.708522E-3,1E0,1E0,1E0,1E0,1E0,1E0,9.360246E-4,1E0,1E0,7.134923E-3,1E0,1E0,3.128911E-2,1.5733921E-3,6.935476E-3,1E0,5.7788217E-3,1E0,4.0661566E-2,1.0021384E-3,1.3157895E-1,3.6376864E-2,1.5505507E-2,7.6042014E-1,3.4459955E-3,1E0,1E0,-0E0,3.4490575E-3,-1.4684099E-3,2.657454E-2,1E0,9.360246E-4,4.056452E-3,-3.3733495E-2,-4.365181E-3,1E0,8.1728855E-3,1.4601602E-2,2.8538812E-2,-1.2517992E-3,-1.5837757E-2,-1.8681115E-2,4.080756E-1,-1.9824451E-3,7.520556E-4,1.5070016E-2,5.6624603E-1,5.1657967E-3,8.695652E-1,2.2521152E-3,1E0,5.3763443E-1,1.5424165E-1,-1.7039832E-2,-3.7134232E-3,-2.5006472E-3,7.586528E-3,-1.8000169E-2,-2.3229949E-3,-3.1058788E-3,2.0378789E-2,-2.5838753E-3,4.925273E-3,2.0361768E-2,-1.6924917E-3,-9.876366E-3,-5.129527E-3,3.893192E-3,-5.2442183E-3,-6.856161E-3,-2.9633898E-2,-6.1438425E-4,-1.910357E-2,-3.3564236E-2,-6.5244315E-3,1.7493297E-3,4.0661734E-2,-8.4386265E-4,-2.372607E-2,-7.5994205E-4,-3.945311E-3,2.4314648E-2,-9.665342E-4,1.7751049E-3,-3.0355998E-3,1.0189593E-2,-2.6965936E-4,1.5600908E-2,-3.882435E-3,8.686271E-2,2.3944017E-2],"split_indices":[2,0,0,0,0,12,13,8,7,11,6,0,9,7,0,13,15,2,0,0,14,0,9,0,0,2,2,0,2,0,8,7,0,0,0,2,14,0,0,0,0,7,0,0,2,0,0,0,2,0,0,0,2,0,2,0,6,2,2,0,0,0,0,0,0,0,0,0,0,0,0,0,0,0,0,0,0,0,0,0,0,0,0,0,0,0,0,0,0,0,0,0,0,0,0,0,0],"split_type":[0,0,0,0,0,0,0,0,0,0,0,0,0,0,0,0,0,0,0,0,0,0,0,0,0,0,0,0,0,0,0,0,0,0,0,0,0,0,0,0,0,0,0,0,0,0,0,0,0,0,0,0,0,0,0,0,0,0,0,0,0,0,0,0,0,0,0,0,0,0,0,0,0,0,0,0,0,0,0,0,0,0,0,0,0,0,0,0,0,0,0,0,0,0,0,0,0],"sum_hessian":[3.1121973E3,1.0499169E3,2.0622805E3,6.614372E2,3.884796E2,3.347573E1,2.0288048E3,2.5716278E1,6.3572095E2,7.5753956E0,3.8090424E2,6.408523E0,2.7067207E1,1.6380492E3,3.907556E2,2.2471354E1,3.2449257E0,4.7925577E2,1.5646515E2,1.9676347E0,5.607761E0,2.1434842E2,1.665558E2,1.0036192E0,5.404904E0,1.7097672E1,9.969536E0,1.2099875E3,4.2806168E2,3.1638968E2,7.436595E1,2.056222E1,1.9091337E0,1.2899234E0,1.9550022E0,4.6979376E2,9.462013E0,2.0528126E1,1.3593703E2,3.8728642E0,1.7348967E0,3.9284894E0,2.1041992E2,9.513333E1,7.142247E1,2.9507256E0,2.4541783E0,5.324E0,1.1773672E1,1.8269224E0,8.142613E0,1.1782622E3,3.1725311E1,4.1737167E2,1.0690003E1,1.2968227E2,1.867074E2,6.516123E1,9.204722E0,1.8729479E1,1.8327401E0,4.5304254E2,1.6751242E1,6.3975124E0,3.0645003E0,8.39464E0,1.2133486E1,8.9250725E1,4.6686302E1,1.4323444E0,2.496145E0,8.309215E1,1.2732778E2,6.413658E1,3.099675E1,6.980532E1,1.6171482E0,8.822846E0,2.9508257E0,5.851767E0,2.290846E0,1.1769735E3,1.288712E0,2.7092009E1,4.6333027E0,2.4115242E2,1.7621924E2,3.722511E0,6.967492E0,4.864465E1,8.103762E1,8.92441E1,9.7463295E1,5.1610565E1,1.3550665E1,1.6091118E0,7.5956106E0],"tree_param":{"num_deleted":"0","num_feature":"17","num_nodes":"97","size_leaf_vector":"1"}},{"base_weights":[2.9869562E-3,-1.05989E-1,5.983941E-2,-8.007962E-2,-2.2596534E-1,2.8795369E-2,1.9327815E-1,-5.1914647E-2,-1.8866685E-1,-2.6286292E-1,9.8762445E-2,-2.9739395E-1,3.6451407E-2,1.23790234E-1,9.1033715E-1,-3.4941817E-3,-1.1330539E-1,-2.3274517E-1,2.5042545E-2,-3.082573E-2,-2.4674727E-1,-1.10976905E-1,7.763261E-1,-3.6631936E-1,2.4509595E-1,6.5173395E-2,-4.9024664E-2,-1.6691002E-1,1.7142752E-1,2.511455E-1,1.2300233E0,-3.462005E-2,3.1713423E-1,-2.4908645E-1,-5.6388546E-2,-1.9115382E-1,-3.7746325E-2,3.582327E-1,-1.6257255E-1,-9.595568E-2,-3.0763692E-1,5.4804822E-3,-2.7700149E-2,3.6301028E-2,-0E0,-2.7393377E-1,-6.705839E-1,1.4888722E-2,-1.2616344E-3,7.405872E-2,-3.152575E-1,-5.5532105E-2,6.1889344E-1,-2.5943798E-1,-1.7747424E-3,1.8820421E-1,-8.33535E-1,3.747719E-2,-0E0,2.6812694E0,8.404699E-1,7.478139E-4,-5.0728037E-3,3.3360352E-3,1.7284347E-2,-1.3917159E-2,-5.355325E-3,4.9189274E-4,-6.829324E-3,-1.967578E-3,-7.741699E-3,3.5756142E-3,1.8807841E-2,-9.769795E-3,-2.6449359E-3,-9.409932E-3,1.7460642E-3,-4.70365E-3,-1.2516165E-2,8.948336E-3,-2.979114E-3,-3.7237075E-3,-2.0378444E-2,-2.6836375E-2,-6.9419417E-4,2.6050266E-3,-3.1708688E-3,-2.2153254E-3,-1.5234123E-2,-2.0168019E-3,1.0819792E-2,2.686545E-2,5.445875E-3,-5.179144E-3,-1.6457025E-2,4.9850876E-3,-2.3889504E-3,2.682442E-3,1.1884323E-2,-2.3405256E-3,-3.679565E-2,-8.361887E-3,1.8451978E-2,1.18675895E-1,4.777183E-3,5.6106187E-3,5.3416777E-2],"categories":[],"categories_nodes":[],"categories_segments":[],"categories_sizes":[],"default_left":[0,0,0,0,0,0,0,0,0,0,0,0,0,0,0,0,0,0,0,0,0,0,0,0,0,0,0,0,0,0,0,0,0,0,0,0,0,0,0,0,0,0,0,0,0,0,0,0,0,0,0,0,0,0,0,0,0,0,0,0,0,0,0,0,0,0,0,0,0,0,0,0,0,0,0,0,0,0,0,0,0,0,0,0,0,0,0,0,0,0,0,0,0,0,0,0,0,0,0,0,0,0,0,0,0,0,0],"id":7,"left_children":[1,3,5,7,9,11,13,15,17,19,21,23,25,27,29,31,33,35,37,-1,39,41,43,45,47,49,51,53,55,57,59,61,63,65,67,69,-1,71,73,75,77,79,-1,-1,-1,81,83,-1,-1,85,87,89,91,93,95,97,99,-1,101,103,105,-1,-1,-1,-1,-1,-1,-1,-1,-1,-1,-1,-1,-1,-1,-1,-1,-1,-1,-1,-1,-1,-1,-1,-1,-1,-1,-1,-1,-1,-1,-1,-1,-1,-1,-1,-1,-1,-1,-1,-1,-1,-1,-1,-1,-1,-1],"loss_changes":[1.9550198E1,3.3131514E0,8.566811E0,2.6931558E0,2.3289576E0,4.192591E0,1.92562E1,2.0988235E0,1.7460399E0,1.7375851E0,2.9838839E0,1.5396144E0,4.049483E0,4.980588E0,6.7586823E0,3.9641216E0,2.3680258E0,6.0891647E0,2.0610125E0,0E0,1.4892902E0,1.6082001E0,1.6242895E0,6.967015E-1,4.1036695E-1,4.1719427E0,1.7777069E0,7.458737E-1,5.285264E0,3.2513475E0,1.0227234E1,2.9399967E0,1.740227E0,1.2386184E0,2.7893753E0,1.1869969E0,0E0,6.1712635E-1,1.8222314E-1,1.7477952E0,1.8612642E0,5.053922E-1,0E0,0E0,0E0,1.5687704E0,9.220977E-1,0E0,0E0,2.779872E0,1.2108355E0,1.9959486E0,2.0511127E-1,6.3639235E-1,2.6019883E-1,6.1579933E0,1.3010533E0,0E0,2.0198488E0,1.275811E1,1.1391821E1,0E0,0E0,0E0,0E0,0E0,0E0,0E0,0E0,0E0,0E0,0E0,0E0,0E0,0E0,0E0,0E0,0E0,0E0,0E0,0E0,0E0,0E0,0E0,0E0,0E0,0E0,0E0,0E0,0E0,0E0,0E0,0E0,0E0,0E0,0E0,0E0,0E0,0E0,0E0,0E0,0E0,0E0,0E0,0E0,0E0,0E0],"parents":[2147483647,0,0,1,1,2,2,3,3,4,4,5,5,6,6,7,7,8,8,9,9,10,10,11,11,12,12,13,13,14,14,15,15,16,16,17,17,18,18,20,20,21,21,22,22,23,23,24,24,25,25,26,26,27,27,28,28,29,29,30,30,31,31,32,32,33,33,34,34,35,35,37,37,38,38,39,39,40,40,41,41,45,45,46,46,49,49,50,50,51,51,52,52,53,53,54,54,55,55,56,56,58,58,59,59,60,60],"right_children":[2,4,6,8,10,12,14,16,18,20,22,24,26,28,30,32,34,36,38,-1,40,42,44,46,48,50,52,54,56,58,60,62,64,66,68,70,-1,72,74,76,78,80,-1,-1,-1,82,84,-1,-1,86,88,90,92,94,96,98,100,-1,102,104,106,-1,-1,-1,-1,-1,-1,-1,-1,-1,-1,-1,-1,-1,-1,-1,-1,-1,-1,-1,-1,-1,-1,-1,-1,-1,-1,-1,-1,-1,-1,-1,-1,-1,-1,-1,-1,-1,-1,-1,-1,-1,-1,-1,-1,-1,-1],"split_conditions":[3.3272333E-2,1.8833E4,1E0,1E0,1.4687595E-2,1.2709855E-3,9.649176E-3,4.773067E-3,8.874814E-3,6.244562E-4,1E0,1E0,1E0,3.47E2,3.284E3,4.3094466E-3,3.6E1,8.016249E-3,1.4601602E-2,-3.082573E-2,1E0,1E0,1.26965E5,3.1136483E-1,1.214662E-3,4.1324E5,1.9741837E-2,1E0,9.219301E-3,4.43E2,9.077E3,7.85E2,1E0,5.885291E-3,4.189E3,3.27E2,-3.7746325E-2,1E0,5.7E2,5.0905733E-3,3.2591359E-3,1.9972837E-2,-2.7700149E-2,3.6301028E-2,-0E0,1.2293E4,6.244562E-4,1.4888722E-2,-1.2616344E-3,6.440281E-1,5.7E2,7.6042014E-1,1E0,5.4510636E-3,3.9431383E-3,5.0905733E-3,1.863E3,3.747719E-2,1E0,1.670929E-2,5.7E2,7.478139E-4,-5.0728037E-3,3.3360352E-3,1.7284347E-2,-1.3917159E-2,-5.355325E-3,4.9189274E-4,-6.829324E-3,-1.967578E-3,-7.741699E-3,3.5756142E-3,1.8807841E-2,-9.769795E-3,-2.6449359E-3,-9.409932E-3,1.7460642E-3,-4.70365E-3,-1.2516165E-2,8.948336E-3,-2.979114E-3,-3.7237075E-3,-2.0378444E-2,-2.6836375E-2,-6.9419417E-4,2.6050266E-3,-3.1708688E-3,-2.2153254E-3,-1.5234123E-2,-2.0168019E-3,1.0819792E-2,2.686545E-2,5.445875E-3,-5.179144E-3,-1.6457025E-2,4.9850876E-3,-2.3889504E-3,2.682442E-3,1.1884323E-2,-2.3405256E-3,-3.679565E-2,-8.361887E-3,1.8451978E-2,1.18675895E-1,4.777183E-3,5.6106187E-3,5.3416777E-2],"split_indices":[2,1,13,14,2,0,0,0,0,0,7,7,7,1,1,0,1,0,0,0,9,15,1,2,0,1,0,7,0,1,1,4,7,0,1,1,0,6,4,0,0,2,0,0,0,1,0,0,0,2,4,2,9,0,0,0,1,0,7,0,4,0,0,0,0,0,0,0,0,0,0,0,0,0,0,0,0,0,0,0,0,0,0,0,0,0,0,0,0,0,0,0,0,0,0,0,0,0,0,0,0,0,0,0,0,0,0],"split_type":[0,0,0,0,0,0,0,0,0,0,0,0,0,0,0,0,0,0,0,0,0,0,0,0,0,0,0,0,0,0,0,0,0,0,0,0,0,0,0,0,0,0,0,0,0,0,0,0,0,0,0,0,0,0,0,0,0,0,0,0,0,0,0,0,0,0,0,0,0,0,0,0,0,0,0,0,0,0,0,0,0,0,0,0,0,0,0,0,0,0,0,0,0,0,0,0,0,0,0,0,0,0,0,0,0,0,0],"sum_hessian":[3.1542434E3,1.0804984E3,2.073745E3,8.9065814E2,1.898403E2,1.6839463E3,3.897988E2,7.0912634E2,1.8153175E2,1.70918E2,1.892231E1,3.745032E1,1.646496E3,3.5655798E2,3.324081E1,3.9794373E2,3.1118265E2,1.5080626E2,3.0725485E1,2.104377E0,1.6881361E2,1.497533E1,3.9469786E0,3.3680202E1,3.770119E0,1.2334387E3,4.1305728E2,4.9554592E1,3.070034E2,1.1541234E1,2.1699575E1,3.6382803E2,3.4115677E1,9.039726E1,2.2078539E2,1.4616208E2,4.6441913E0,1.0932968E1,1.9792517E1,4.9772243E1,1.1904138E2,1.3858744E1,1.1165869E0,2.1456082E0,1.8013706E0,2.7545406E1,6.1347957E0,1.808228E0,1.9618909E0,1.2063318E3,2.710684E1,4.1012802E2,2.9292488E0,3.1005234E1,1.854936E1,3.028597E2,4.143665E0,1.5902689E0,9.950966E0,3.2928228E0,1.8406752E1,2.5221417E2,1.1161386E2,2.0016481E1,1.4099197E1,2.062588E1,6.9771385E1,1.5516106E2,6.562433E1,5.201386E1,9.414822E1,6.746591E0,4.186377E0,4.722073E0,1.5070444E1,2.0473133E1,2.929911E1,5.149258E1,6.75488E1,3.4173727E0,1.0441371E1,2.1246098E1,6.299309E0,4.1597548E0,1.9750409E0,1.1272865E3,7.904527E1,1.2871512E1,1.4235329E1,3.9996802E2,1.01600065E1,1.0126225E0,1.9166263E0,2.5340652E1,5.66458E0,5.1093464E0,1.3440013E1,2.0661201E2,9.62477E1,1.9150208E0,2.228644E0,7.3204985E0,2.6304672E0,1.7833647E0,1.5094581E0,1.1628901E1,6.7778516E0],"tree_param":{"num_deleted":"0","num_feature":"17","num_nodes":"107","size_leaf_vector":"1"}},{"base_weights":[-6.290915E-3,-1.0788974E-1,3.400489E-2,-7.511242E-2,-2.4899147E-1,1.2507334E-2,1.290013E-1,3.5032567E-1,-8.693158E-2,-1.0130008E-1,-3.0923396E-1,-3.1881776E-2,5.8036424E-2,-2.9575614E-2,1.9353105E-1,6.370118E-2,1.4863745E0,-9.5560186E-2,1.2050346E-1,-1.8856071E-1,2.6455155E-1,-2.8419515E-1,-3.0282654E-2,2.1295689E-2,-8.402107E-2,1.2272251E-2,1.6562463E-1,-1.2657101E-1,1.7762192E-1,2.5046754E-1,-1.0301296E-1,-3.101065E-1,2.2809647E-1,6.445057E-2,4.2262143E-3,-1.3711573E-1,-4.980784E-2,3.406143E-1,-1.0952666E-1,-2.8141508E-1,1.0027645E-1,2.7096462E-2,-8.618546E-2,-2.7082374E-2,-2.6336288E-1,6.724238E-1,1.0790947E-2,-6.825283E-2,-5.759818E-1,2.8356742E-2,8.030638E-3,2.1790844E-1,-1.7660081E-2,-9.926711E-2,-6.1903536E-1,1.3040358E-1,2.738643E-2,7.2951324E-2,3.1127498E-1,-1.9053893E-1,5.708453E-1,1.7353232E-3,-2.8909858E-2,1.9976107E-2,-4.00358E-3,-5.0646253E-3,-2.1275063E-4,-2.5347266E-3,6.134317E-3,-0E0,2.3017783E-2,9.929423E-4,-5.5410936E-3,-6.00287E-3,-2.6595132E-2,-4.132157E-3,8.001272E-3,1.5227799E-2,-1.333867E-2,-9.052308E-3,-1.2702803E-3,-0E0,3.5409678E-2,2.5571734E-3,-5.2380684E-4,-1.0090437E-3,-5.217923E-3,-1.2410301E-2,-2.5757218E-2,9.190519E-4,-3.9636963E-3,1.0563961E-2,3.4667554E-3,2.0501018E-3,-5.316008E-3,-1.6302284E-2,-2.0592788E-3,-6.0143075E-3,-2.3627033E-2,1.6568674E-3,1.4325414E-2,2.1971863E-2,-1.750346E-4,1.4938073E-2,5.5363514E-3,-1.3435954E-2,-1.886729E-3,1.179113E-3,2.6662407E-2],"categories":[],"categories_nodes":[],"categories_segments":[],"categories_sizes":[],"default_left":[0,0,0,0,0,0,0,0,0,0,0,0,0,0,0,0,0,0,0,0,0,0,0,0,0,0,0,0,0,0,0,0,0,0,0,0,0,0,0,0,0,0,0,0,0,0,0,0,0,0,0,0,0,0,0,0,0,0,0,0,0,0,0,0,0,0,0,0,0,0,0,0,0,0,0,0,0,0,0,0,0,0,0,0,0,0,0,0,0,0,0,0,0,0,0,0,0,0,0,0,0,0,0,0,0,0,0,0,0],"id":8,"left_children":[1,3,5,7,9,11,13,15,17,19,21,23,25,27,29,31,33,35,37,39,41,43,-1,45,47,49,51,53,55,57,59,61,63,-1,-1,65,67,69,71,73,75,-1,77,-1,79,81,83,85,87,-1,89,91,93,95,97,99,-1,101,103,105,107,-1,-1,-1,-1,-1,-1,-1,-1,-1,-1,-1,-1,-1,-1,-1,-1,-1,-1,-1,-1,-1,-1,-1,-1,-1,-1,-1,-1,-1,-1,-1,-1,-1,-1,-1,-1,-1,-1,-1,-1,-1,-1,-1,-1,-1,-1,-1,-1],"loss_changes":[1.2837001E1,4.067976E0,4.565344E0,3.648363E0,1.4124174E0,3.705387E0,4.2482743E0,6.119463E0,1.2730031E0,1.6486257E0,1.6448975E0,2.577629E0,4.4384604E0,2.426451E0,5.0065975E0,1.090901E0,2.8759422E0,1.2654414E0,1.4872925E0,1.1575156E0,2.3739338E0,1.127964E0,0E0,3.0616286E0,3.5352335E0,2.4178038E0,2.6062984E0,9.7685826E-1,1.1066511E0,2.60855E0,2.890073E0,1.4327695E0,2.1023378E0,0E0,0E0,1.4409842E0,2.8794954E0,2.2244725E0,1.7475598E-1,1.2824831E0,4.6772748E-1,0E0,1.750288E0,0E0,9.101615E-1,2.349432E0,9.600822E-1,1.641103E0,1.7060709E-1,0E0,2.0063515E0,2.7998457E0,8.504725E-1,9.842899E-1,2.219987E-2,8.934544E-1,0E0,3.4451246E0,4.1805E0,1.3393439E0,8.209051E-1,0E0,0E0,0E0,0E0,0E0,0E0,0E0,0E0,0E0,0E0,0E0,0E0,0E0,0E0,0E0,0E0,0E0,0E0,0E0,0E0,0E0,0E0,0E0,0E0,0E0,0E0,0E0,0E0,0E0,0E0,0E0,0E0,0E0,0E0,0E0,0E0,0E0,0E0,0E0,0E0,0E0,0E0,0E0,0E0,0E0,0E0,0E0,0E0],"parents":[2147483647,0,0,1,1,2,2,3,3,4,4,5,5,6,6,7,7,8,8,9,9,10,10,11,11,12,12,13,13,14,14,15,15,16,16,17,17,18,18,19,19,20,20,21,21,23,23,24,24,25,25,26,26,27,27,28,28,29,29,30,30,31,31,32,32,35,35,36,36,37,37,38,38,39,39,40,40,42,42,44,44,45,45,46,46,47,47,48,48,50,50,51,51,52,52,53,53,54,54,55,55,57,57,58,58,59,59,60,60],"right_children":[2,4,6,8,10,12,14,16,18,20,22,24,26,28,30,32,34,36,38,40,42,44,-1,46,48,50,52,54,56,58,60,62,64,-1,-1,66,68,70,72,74,76,-1,78,-1,80,82,84,86,88,-1,90,92,94,96,98,100,-1,102,104,106,108,-1,-1,-1,-1,-1,-1,-1,-1,-1,-1,-1,-1,-1,-1,-1,-1,-1,-1,-1,-1,-1,-1,-1,-1,-1,-1,-1,-1,-1,-1,-1,-1,-1,-1,-1,-1,-1,-1,-1,-1,-1,-1,-1,-1,-1,-1,-1,-1],"split_conditions":[1.2193635E-2,1.8833E4,1E0,7.5E-1,1E0,1E0,9.675859E-2,1E0,1.4133E4,1.26965E5,1.330191E6,5.7E2,3.1136483E-1,7.915E3,4.5993707E-1,2.93E2,5.509E3,1E0,7.25E2,1E0,5.65E2,1.9848E4,-3.0282654E-2,4.3E1,6.440281E-1,1.3608351E-2,6.440281E-1,9.2850514E-2,8.718396E-2,1.029E3,1E0,1E0,3.446E3,6.445057E-2,4.2262143E-3,1E0,1E0,1E0,1.5776E4,9.1184E4,3.1305E4,2.7096462E-2,1.50208E5,-2.7082374E-2,1E0,2.2E1,1.815E3,2.6791695E-1,8.971705E-1,2.8356742E-2,4.2691E4,7.915E3,2.4428E4,7.8E1,9.67E2,1E0,2.738643E-2,1.19817875E-1,7.25E3,5.65E2,1E0,1.7353232E-3,-2.8909858E-2,1.9976107E-2,-4.00358E-3,-5.0646253E-3,-2.1275063E-4,-2.5347266E-3,6.134317E-3,-0E0,2.3017783E-2,9.929423E-4,-5.5410936E-3,-6.00287E-3,-2.6595132E-2,-4.132157E-3,8.001272E-3,1.5227799E-2,-1.333867E-2,-9.052308E-3,-1.2702803E-3,-0E0,3.5409678E-2,2.5571734E-3,-5.2380684E-4,-1.0090437E-3,-5.217923E-3,-1.2410301E-2,-2.5757218E-2,9.190519E-4,-3.9636963E-3,1.0563961E-2,3.4667554E-3,2.0501018E-3,-5.316008E-3,-1.6302284E-2,-2.0592788E-3,-6.0143075E-3,-2.3627033E-2,1.6568674E-3,1.4325414E-2,2.1971863E-2,-1.750346E-4,1.4938073E-2,5.5363514E-3,-1.3435954E-2,-1.886729E-3,1.179113E-3,2.6662407E-2],"split_indices":[2,1,13,3,9,6,2,16,1,1,1,4,2,1,2,1,1,10,4,13,4,1,0,1,2,2,2,2,2,1,8,14,1,0,0,13,8,9,1,1,1,0,1,0,8,1,1,2,2,0,1,1,1,1,1,8,0,2,1,4,9,0,0,0,0,0,0,0,0,0,0,0,0,0,0,0,0,0,0,0,0,0,0,0,0,0,0,0,0,0,0,0,0,0,0,0,0,0,0,0,0,0,0,0,0,0,0,0,0],"split_type":[0,0,0,0,0,0,0,0,0,0,0,0,0,0,0,0,0,0,0,0,0,0,0,0,0,0,0,0,0,0,0,0,0,0,0,0,0,0,0,0,0,0,0,0,0,0,0,0,0,0,0,0,0,0,0,0,0,0,0,0,0,0,0,0,0,0,0,0,0,0,0,0,0,0,0,0,0,0,0,0,0,0,0,0,0,0,0,0,0,0,0,0,0,0,0,0,0,0,0,0,0,0,0,0,0,0,0,0,0],"sum_hessian":[3.1318584E3,8.89626E2,2.2422324E3,7.237443E2,1.6588167E2,1.8302367E3,4.1199567E2,1.856012E1,7.051842E2,4.9316963E1,1.16564705E2,9.257598E2,9.044768E2,1.1887109E2,2.9312457E2,1.5734428E1,2.825691E0,6.780029E2,2.7181267E1,4.0431442E1,8.885521E0,1.14035484E2,2.5292244E0,4.576604E2,4.6809943E2,6.3599207E2,2.6848474E2,8.156147E1,3.7309624E1,2.4632309E2,4.680147E1,4.349576E0,1.1384852E1,1.4441586E0,1.3815323E0,3.5310513E2,3.2489783E2,1.3866603E1,1.3314664E1,3.0877094E1,9.55435E0,2.692541E0,6.1929793E0,2.1797636E0,1.1185572E2,6.114698E0,4.515457E2,4.5486227E2,1.323716E1,1.7676693E0,6.342244E2,2.0917278E2,5.931196E1,7.860782E1,2.9536538E0,3.6292294E1,1.0173271E0,6.382929E1,1.824938E2,4.2187473E1,4.613997E0,3.2681162E0,1.0814599E0,4.8939705E0,6.490882E0,2.8302478E2,7.0080345E1,2.86836E2,3.806182E1,8.158E0,5.7086034E0,4.3297634E0,8.9849E0,2.8537785E1,2.339309E0,3.7553675E0,5.798982E0,2.0695267E0,4.1234527E0,9.460894E1,1.724678E1,3.1192029E0,2.995495E0,1.2463283E2,3.2691287E2,3.4433075E2,1.1053154E2,1.0197829E1,3.0393298E0,5.4742847E2,8.6795944E1,8.901688E1,1.201559E2,3.850273E1,2.0809229E1,3.779832E0,7.482799E1,1.6467565E0,1.3068972E0,3.1021156E1,5.271138E0,6.062112E0,5.7767178E1,7.229383E1,1.1019997E2,1.289678E1,2.9290695E1,2.265016E0,2.348981E0],"tree_param":{"num_deleted":"0","num_feature":"17","num_nodes":"109","size_leaf_vector":"1"}},{"base_weights":[-3.4834102E-3,-9.538853E-2,4.327307E-2,4.9044922E-1,-1.0701182E-1,8.215198E-3,1.9239815E-1,-8.738898E-3,1.3674059E0,-4.7399402E-1,-9.747945E-2,-4.6406198E-1,1.7075447E-2,1.2560849E-1,9.3965447E-1,-1.709972E-1,1.8468846E-2,8.920461E-2,4.4879043E-1,-3.3221087E-1,-3.4980927E-2,-5.5742674E-2,-1.6882738E-1,-2.3437797E-1,-8.5332793E-1,4.64532E-2,-6.6310406E-2,1.4358981E-1,-3.799141E-1,2.6956183E-1,1.3196416E0,-2.992347E-1,1.4793383E-2,6.776065E-1,-0E0,-2.012262E-1,-8.983767E-1,-4.4254906E-2,-4.441039E-1,-8.816998E-1,-1.5501116E-1,-2.6541598E-2,-4.2529657E-1,-2.3975039E-1,-1.0384935E0,-3.7894275E-2,7.980136E-2,5.897907E-2,-1.2145281E-1,1.0878505E-1,5.351053E-1,-2.0050739E-1,-2.815427E-2,3.3717144E-2,-9.7448024E-4,1.15173474E-1,8.4244406E-1,-2.3069198E-3,-2.6511975E-2,1.848213E-3,2.727759E-2,-8.497142E-3,5.4656677E-3,-6.8084267E-3,-3.680154E-2,-2.1700244E-3,1.8750442E-3,-2.6957872E-3,-2.1244619E-2,-3.60915E-2,-8.244203E-4,8.8166995E-3,-4.88685E-3,7.835765E-3,-7.624577E-3,-3.8432423E-2,-5.026897E-3,-2.0672023E-2,7.768209E-3,7.413442E-4,-3.9681006E-2,1.8760891E-4,-4.316112E-3,3.6112934E-3,-8.5931725E-4,1.3378597E-2,7.7699934E-4,-2.9696282E-3,-1.208157E-2,3.5178522E-3,-2.785606E-2,3.6081515E-2,7.6207244E-3,-9.749507E-3,6.4207674E-3,-1.1177377E-2,1.913389E-2,3.2420373E-3,4.8877314E-2],"categories":[],"categories_nodes":[],"categories_segments":[],"categories_sizes":[],"default_left":[0,0,0,0,0,0,0,0,0,0,0,0,0,0,0,0,0,0,0,0,0,0,0,0,0,0,0,0,0,0,0,0,0,0,0,0,0,0,0,0,0,0,0,0,0,0,0,0,0,0,0,0,0,0,0,0,0,0,0,0,0,0,0,0,0,0,0,0,0,0,0,0,0,0,0,0,0,0,0,0,0,0,0,0,0,0,0,0,0,0,0,0,0,0,0,0,0,0,0],"id":9,"left_children":[1,3,5,7,9,11,13,15,17,19,21,23,25,27,29,31,-1,-1,33,35,-1,37,39,41,43,45,47,49,51,53,55,57,-1,59,-1,61,63,65,67,69,71,73,75,77,79,81,83,85,87,89,91,93,-1,-1,95,-1,97,-1,-1,-1,-1,-1,-1,-1,-1,-1,-1,-1,-1,-1,-1,-1,-1,-1,-1,-1,-1,-1,-1,-1,-1,-1,-1,-1,-1,-1,-1,-1,-1,-1,-1,-1,-1,-1,-1,-1,-1,-1,-1],"loss_changes":[1.3569495E1,7.2667866E0,1.0912784E1,9.2238865E0,3.553563E0,7.0559134E0,1.9615059E1,1.4926052E0,9.535635E0,2.0081658E0,3.0067883E0,2.4665751E0,4.079709E0,3.3594651E0,7.7193813E0,1.1609943E0,0E0,0E0,6.5139496E-1,1.4185355E0,0E0,2.8144195E0,3.4554386E0,7.792858E-1,8.705325E-1,3.474496E0,3.0068874E0,4.708269E0,9.666612E-1,3.1305244E0,2.0684612E1,1.254225E0,0E0,4.2815387E-1,0E0,6.953255E-1,4.3567705E-1,1.8909724E0,1.5593727E0,1.7059231E0,1.3422918E0,8.1239843E-1,1.9918482E0,1.1111042E0,2.5823565E0,1.6479437E0,3.9048877E0,1.6378404E0,1.8166318E0,2.903646E0,4.8881083E0,6.477301E-1,0E0,0E0,2.7805378E0,0E0,1.0263533E1,0E0,0E0,0E0,0E0,0E0,0E0,0E0,0E0,0E0,0E0,0E0,0E0,0E0,0E0,0E0,0E0,0E0,0E0,0E0,0E0,0E0,0E0,0E0,0E0,0E0,0E0,0E0,0E0,0E0,0E0,0E0,0E0,0E0,0E0,0E0,0E0,0E0,0E0,0E0,0E0,0E0,0E0],"parents":[2147483647,0,0,1,1,2,2,3,3,4,4,5,5,6,6,7,7,8,8,9,9,10,10,11,11,12,12,13,13,14,14,15,15,18,18,19,19,21,21,22,22,23,23,24,24,25,25,26,26,27,27,28,28,29,29,30,30,31,31,33,33,35,35,36,36,37,37,38,38,39,39,40,40,41,41,42,42,43,43,44,44,45,45,46,46,47,47,48,48,49,49,50,50,51,51,54,54,56,56],"right_children":[2,4,6,8,10,12,14,16,18,20,22,24,26,28,30,32,-1,-1,34,36,-1,38,40,42,44,46,48,50,52,54,56,58,-1,60,-1,62,64,66,68,70,72,74,76,78,80,82,84,86,88,90,92,94,-1,-1,96,-1,98,-1,-1,-1,-1,-1,-1,-1,-1,-1,-1,-1,-1,-1,-1,-1,-1,-1,-1,-1,-1,-1,-1,-1,-1,-1,-1,-1,-1,-1,-1,-1,-1,-1,-1,-1,-1,-1,-1,-1,-1,-1,-1],"split_conditions":[3.3272333E-2,7.5E-1,1E0,1E0,6.244562E-4,6.244562E-4,9.795447E-3,6.9633033E-3,6.12E2,1.1276E4,5.6173587E-3,1E0,1E0,8.994762E-3,3.181E3,8.874814E-3,1.8468846E-2,8.920461E-2,2.1429807E-3,8.228195E-3,-3.4980927E-2,1.70334E5,5.708522E-3,1.77E3,5.5121727E-2,3.3252786E-3,1.347E3,7.134923E-3,8.099E3,4.43E2,9.077E3,3.992692E-3,1.4793383E-2,1.40981E-3,-0E0,8.85E2,8.68E2,4.2834114E-3,2.8812797E-3,6.25E2,5.7788217E-3,1.1092623E-1,1.3157895E-1,5.509E3,1.009E3,2.8812797E-3,2.084E4,6.5E1,1.15066385E-2,9.24037E5,7.5688497E-3,3.35E3,-2.815427E-2,3.3717144E-2,1E0,1.15173474E-1,5.7E2,-2.3069198E-3,-2.6511975E-2,1.848213E-3,2.727759E-2,-8.497142E-3,5.4656677E-3,-6.8084267E-3,-3.680154E-2,-2.1700244E-3,1.8750442E-3,-2.6957872E-3,-2.1244619E-2,-3.60915E-2,-8.244203E-4,8.8166995E-3,-4.88685E-3,7.835765E-3,-7.624577E-3,-3.8432423E-2,-5.026897E-3,-2.0672023E-2,7.768209E-3,7.413442E-4,-3.9681006E-2,1.8760891E-4,-4.316112E-3,3.6112934E-3,-8.5931725E-4,1.3378597E-2,7.7699934E-4,-2.9696282E-3,-1.208157E-2,3.5178522E-3,-2.785606E-2,3.6081515E-2,7.6207244E-3,-9.749507E-3,6.4207674E-3,-1.1177377E-2,1.913389E-2,3.2420373E-3,4.8877314E-2],"split_indices":[2,3,13,7,0,0,0,2,1,1,0,9,7,0,1,0,0,0,0,2,0,1,0,1,2,0,1,0,1,1,1,0,0,0,0,4,1,0,0,4,0,2,2,1,1,0,1,1,0,1,0,1,0,0,7,0,4,0,0,0,0,0,0,0,0,0,0,0,0,0,0,0,0,0,0,0,0,0,0,0,0,0,0,0,0,0,0,0,0,0,0,0,0,0,0,0,0,0,0],"split_type":[0,0,0,0,0,0,0,0,0,0,0,0,0,0,0,0,0,0,0,0,0,0,0,0,0,0,0,0,0,0,0,0,0,0,0,0,0,0,0,0,0,0,0,0,0,0,0,0,0,0,0,0,0,0,0,0,0,0,0,0,0,0,0,0,0,0,0,0,0,0,0,0,0,0,0,0,0,0,0,0,0,0,0,0,0,0,0,0,0,0,0,0,0,0,0,0,0,0,0],"sum_hessian":[3.154609E3,1.0640997E3,2.0905093E3,1.9732683E1,1.0443671E3,1.6939933E3,3.9651587E2,1.3133012E1,6.5996714E0,2.4941492E1,1.01942554E3,3.0041313E1,1.663952E3,3.651782E2,3.1337656E1,1.1127521E1,2.0054913E0,1.5477852E0,5.051886E0,2.204874E1,2.892753E0,6.4518896E2,3.742366E2,2.0062534E1,9.97878E0,1.231665E3,4.3228696E2,3.5351746E2,1.1660758E1,1.20538025E1,1.9283854E1,9.913293E0,1.2142273E0,3.0734406E0,1.9784455E0,1.9150291E1,2.8984487E0,6.2798456E2,1.7204405E1,5.783293E0,3.684533E2,1.0401804E1,9.66073E0,2.97047E0,7.00831E0,3.4809464E2,8.8357043E2,1.315372E2,3.0074976E2,3.260644E2,2.7453049E1,9.990024E0,1.670735E0,2.2292373E0,9.824566E0,1.9155546E0,1.73683E1,8.125195E0,1.788098E0,1.3038528E0,1.7695878E0,1.6205954E1,2.9443374E0,1.6073385E0,1.2911102E0,4.98205E2,1.2977954E2,8.08148E0,9.122924E0,3.82059E0,1.9627025E0,5.514231E0,3.629391E2,4.3349304E0,6.066874E0,1.2272322E0,8.433497E0,1.4672548E0,1.5032151E0,1.5966198E0,5.41169E0,2.4572643E2,1.023682E2,6.4358386E2,2.3998654E2,9.137548E0,1.2239964E2,2.8008627E2,2.0663488E1,3.2439688E2,1.6675212E0,7.0569696E0,2.039608E1,8.034638E0,1.9553852E0,6.5736322E0,3.2509334E0,9.63744E0,7.7308593E0],"tree_param":{"num_deleted":"0","num_feature":"17","num_nodes":"99","size_leaf_vector":"1"}},{"base_weights":[4.8764697E-3,-5.6883693E-2,6.742416E-2,-4.0611172E-1,-4.6764676E-2,-4.2129713E-1,7.654048E-2,-2.922236E-1,-3.0038966E-2,-3.5125967E-2,-1.8282977E-1,-2.0480528E-1,-8.198739E-1,2.6208892E-2,1.22469164E-1,-1.4875953E-1,-5.5418587E-1,2.5979123E-1,-4.1037455E-2,-2.0941879E-1,4.7028053E-1,1.1275747E-2,-3.0314094E-1,-3.3324074E-2,-2.0102617E-1,2.3825894E-1,5.884025E-3,2.0936549E-1,3.3974804E-2,-1.25795165E-2,-4.4467453E-2,-7.319656E-1,-1.7293428E-1,6.6489704E-2,6.384963E-2,-7.42701E-2,1.0689509E-3,-1.911472E-1,-5.866239E-1,-4.2873216E-3,4.3155447E-2,3.348302E-3,-3.9396387E-1,-8.938158E-3,-6.8055216E-4,3.3795542E-1,-5.5748213E-2,-3.3779006E-2,1.0605432E-1,1.5162106E-1,5.0201863E-1,4.795619E-2,-3.91489E-1,-3.542068E-3,2.7362455E-3,-2.8130617E-2,6.0515734E-3,4.5544617E-3,-2.03222E-2,8.339974E-3,-1.3611185E-2,-1.4813062E-3,-5.6555015E-3,-3.3629662E-4,3.5630494E-2,-8.722193E-3,-3.979472E-3,-2.3799227E-3,-2.5400931E-2,-1.4530734E-2,-0E0,1.5440207E-2,-4.5735567E-4,5.5455836E-4,-8.661693E-3,6.9895214E-3,-1.4159369E-3,5.42705E-3,-8.199123E-4,3.5058637E-3,1.8353835E-2,6.251496E-2,1.2388507E-2,-1.241779E-3,3.2124615E-3,-3.375302E-2,-2.9420452E-3],"categories":[],"categories_nodes":[],"categories_segments":[],"categories_sizes":[],"default_left":[0,0,0,0,0,0,0,0,0,0,0,0,0,0,0,0,0,0,0,0,0,0,0,0,0,0,0,0,0,0,0,0,0,0,0,0,0,0,0,0,0,0,0,0,0,0,0,0,0,0,0,0,0,0,0,0,0,0,0,0,0,0,0,0,0,0,0,0,0,0,0,0,0,0,0,0,0,0,0,0,0,0,0,0,0,0,0],"id":10,"left_children":[1,3,5,7,9,11,13,15,-1,17,19,21,23,25,27,29,31,33,35,37,39,-1,41,-1,43,45,47,49,51,-1,53,55,57,59,-1,61,63,65,67,-1,-1,-1,69,-1,-1,71,73,75,77,79,81,83,85,-1,-1,-1,-1,-1,-1,-1,-1,-1,-1,-1,-1,-1,-1,-1,-1,-1,-1,-1,-1,-1,-1,-1,-1,-1,-1,-1,-1,-1,-1,-1,-1,-1,-1],"loss_changes":[1.2001508E1,5.4568305E0,6.877712E0,2.5325494E0,2.3785167E0,2.1655483E0,3.4886503E0,1.2806137E0,0E0,2.4329038E0,2.1361074E0,1.2366277E0,1.3452516E0,3.1036124E0,6.0578833E0,6.7586297E-1,6.560762E-1,9.518557E0,1.9322498E0,6.0288954E-1,3.1907935E0,0E0,7.360846E-1,0E0,3.6359847E-2,1.8952565E0,2.649121E0,6.597492E0,2.3286955E0,0E0,2.1653782E-1,1.8564892E0,1.0703716E0,2.9548485E0,0E0,2.1571527E0,8.966866E0,5.684056E-1,4.4426322E-1,0E0,0E0,0E0,5.14349E-1,0E0,0E0,3.021494E0,3.1895396E-1,1.6954048E0,1.91029E0,5.210462E0,8.047506E0,2.0325818E0,2.440825E0,0E0,0E0,0E0,0E0,0E0,0E0,0E0,0E0,0E0,0E0,0E0,0E0,0E0,0E0,0E0,0E0,0E0,0E0,0E0,0E0,0E0,0E0,0E0,0E0,0E0,0E0,0E0,0E0,0E0,0E0,0E0,0E0,0E0,0E0],"parents":[2147483647,0,0,1,1,2,2,3,3,4,4,5,5,6,6,7,7,9,9,10,10,11,11,12,12,13,13,14,14,15,15,16,16,17,17,18,18,19,19,20,20,22,22,24,24,25,25,26,26,27,27,28,28,30,30,31,31,32,32,33,33,35,35,36,36,37,37,38,38,42,42,45,45,46,46,47,47,48,48,49,49,50,50,51,51,52,52],"right_children":[2,4,6,8,10,12,14,16,-1,18,20,22,24,26,28,30,32,34,36,38,40,-1,42,-1,44,46,48,50,52,-1,54,56,58,60,-1,62,64,66,68,-1,-1,-1,70,-1,-1,72,74,76,78,80,82,84,86,-1,-1,-1,-1,-1,-1,-1,-1,-1,-1,-1,-1,-1,-1,-1,-1,-1,-1,-1,-1,-1,-1,-1,-1,-1,-1,-1,-1,-1,-1,-1,-1,-1,-1],"split_conditions":[9.84537E-2,6.244562E-4,1.214662E-3,1.2293E4,1.670929E-2,3.1136483E-1,4.526661E-3,1.3608351E-2,-3.0038966E-2,7.5E-1,1.44456E5,1.19817875E-1,6.244562E-4,1.9501891E-3,7.25E3,1.18E2,6.887052E-2,7.15E2,1.6341204E-2,2.0980489E-2,1.9741837E-2,1.1275747E-2,1.93E2,-3.3324074E-2,1.449E3,1E0,3.3112583E-1,4.461E3,9.24037E5,-1.25795165E-2,1E0,6.089E3,8.409677E-2,5.509E3,6.384963E-2,1.8833E4,1.3453965E-2,8.14E2,1.7307442E-2,-4.2873216E-3,4.3155447E-2,3.348302E-3,2.922E4,-8.938158E-3,-6.8055216E-4,1E0,3.504478E-1,1E0,5.7E2,1.2525855E-2,1.3157895E-1,1E0,6.250986E-3,-3.542068E-3,2.7362455E-3,-2.8130617E-2,6.0515734E-3,4.5544617E-3,-2.03222E-2,8.339974E-3,-1.3611185E-2,-1.4813062E-3,-5.6555015E-3,-3.3629662E-4,3.5630494E-2,-8.722193E-3,-3.979472E-3,-2.3799227E-3,-2.5400931E-2,-1.4530734E-2,-0E0,1.5440207E-2,-4.5735567E-4,5.5455836E-4,-8.661693E-3,6.9895214E-3,-1.4159369E-3,5.42705E-3,-8.199123E-4,3.5058637E-3,1.8353835E-2,6.251496E-2,1.2388507E-2,-1.241779E-3,3.2124615E-3,-3.375302E-2,-2.9420452E-3],"split_indices":[2,0,0,1,0,2,0,2,0,3,1,2,0,0,1,1,2,4,2,2,0,0,1,0,1,8,2,1,1,0,12,1,2,1,0,1,0,1,0,0,0,0,1,0,0,7,2,3,4,0,2,6,0,0,0,0,0,0,0,0,0,0,0,0,0,0,0,0,0,0,0,0,0,0,0,0,0,0,0,0,0,0,0,0,0,0,0],"split_type":[0,0,0,0,0,0,0,0,0,0,0,0,0,0,0,0,0,0,0,0,0,0,0,0,0,0,0,0,0,0,0,0,0,0,0,0,0,0,0,0,0,0,0,0,0,0,0,0,0,0,0,0,0,0,0,0,0,0,0,0,0,0,0,0,0,0,0,0,0,0,0,0,0,0,0,0,0,0,0,0,0,0,0,0,0,0,0],"sum_hessian":[3.1045542E3,1.5613523E3,1.5432018E3,4.258657E1,1.5187657E3,2.7230038E1,1.5159718E3,3.713906E1,5.447509E0,1.4009266E3,1.17839096E2,1.8789192E1,8.440845E0,7.2510425E2,7.9086755E2,2.5256758E1,1.1882305E1,2.6352804E1,1.3745739E3,1.14029274E2,3.8098235E0,2.1651351E0,1.6624058E1,5.0909686E0,3.349876E0,6.2053654E1,6.630506E2,3.9777737E2,3.9309018E2,5.919851E0,1.9336906E1,7.2973256E0,4.584979E0,2.4869164E1,1.4836413E0,7.691389E2,6.0543494E2,1.1045094E2,3.5783262E0,2.791232E0,1.0185915E0,2.747488E0,1.387657E1,1.3726363E0,1.9772396E0,4.648235E1,1.5571302E1,4.747392E2,1.8831136E2,3.337782E2,6.3999176E1,3.8167023E2,1.1419941E1,1.3098202E1,6.2387047E0,6.064034E0,1.2332917E0,3.0940473E0,1.4909319E0,1.8148062E1,6.7211018E0,6.3342847E2,1.3571043E2,6.0013116E2,5.3037534E0,3.8768448E1,7.1682495E1,1.7853693E0,1.792957E0,1.103442E1,2.8421495E0,3.0865335E1,1.5617016E1,1.2181348E1,3.3899546E0,2.1596357E1,4.5314285E2,1.2087639E2,6.743497E1,3.1170502E2,2.207319E1,2.1578653E0,6.184131E1,1.5143535E2,2.3023488E2,2.355494E0,9.064447E0],"tree_param":{"num_deleted":"0","num_feature":"17","num_nodes":"87","size_leaf_vector":"1"}},{"base_weights":[2.8098815E-3,-6.441501E-2,5.9099913E-2,-3.8810372E-1,-5.5650868E-2,3.2379597E-2,1.7060328E-1,-4.8387453E-1,8.945541E-2,-8.7552086E-2,-6.9738895E-4,4.638438E-2,-1.7029823E-1,8.7511875E-2,5.0477207E-1,-1.9232358E-1,-6.2306786E-1,2.6804808E-1,-2.6465396E-3,-5.825877E-2,-2.1528558E-1,-2.9487465E-2,1.9969936E-1,2.0746484E-2,1.7954016E-1,6.859137E-2,-4.536768E-1,1.1111286E-1,-2.7316195E-1,6.6995084E-2,7.571343E-1,-2.8879812E-1,1.7850598E-2,-7.1893096E-1,-4.699254E-4,1.0936294E-2,2.2705533E-3,-1.1269307E-3,-1.3233548E-1,-8.164574E-2,-2.7260706E-1,2.2518192E-1,-4.690854E-2,1.2255763E-1,4.9772058E-2,2.7027456E-2,-4.7949097E-1,2.8924447E-1,-1.4537121E-1,4.2734686E-2,7.261357E-3,-1.8889177E-1,-8.3695215E-1,9.581092E-2,9.882427E-1,-5.3593826E-1,-0E0,2.8543452E-2,-4.612108E-2,1.1902677E-1,4.8114192E-1,-1.3586389E-2,-1.7901179E-3,3.4267795E-3,-9.2656905E-4,-2.3390673E-2,-5.4729376E-3,1.9741843E-3,-4.1923574E-3,-7.3379534E-3,-2.0220529E-3,-8.076662E-3,4.4599436E-3,-3.5692588E-3,-1.175255E-2,1.2966692E-2,-4.6053557E-3,2.9330319E-3,-2.230416E-3,-4.363365E-3,9.481511E-3,-8.4648505E-3,1.1051128E-3,-1.934795E-2,-6.435308E-4,4.4062943E-3,1.2752854E-2,-1.0394578E-2,4.967059E-3,-1.5293597E-3,4.1683517E-2,-2.8669516E-2,-2.2094445E-3,-2.785025E-2,2.231474E-3,5.4801777E-3,2.4670918E-4,5.877916E-3,3.9940406E-2,-1.9302778E-3,-2.279823E-2,-3.7965376E-3,8.534195E-3,1.3225664E-2,-7.852299E-3,2.602242E-2,1.8564274E-3],"categories":[],"categories_nodes":[],"categories_segments":[],"categories_sizes":[],"default_left":[0,0,0,0,0,0,0,0,0,0,0,0,0,0,0,0,0,0,0,0,0,0,0,0,0,0,0,0,0,0,0,0,0,0,0,0,0,0,0,0,0,0,0,0,0,0,0,0,0,0,0,0,0,0,0,0,0,0,0,0,0,0,0,0,0,0,0,0,0,0,0,0,0,0,0,0,0,0,0,0,0,0,0,0,0,0,0,0,0,0,0,0,0,0,0,0,0,0,0,0,0,0,0,0,0,0,0],"id":11,"left_children":[1,3,5,7,9,11,13,15,17,19,21,23,25,27,29,31,33,35,-1,37,39,41,43,45,47,49,51,53,55,57,59,61,63,65,-1,-1,-1,67,69,71,73,75,77,79,-1,81,83,85,87,-1,89,91,93,95,97,99,101,-1,103,-1,105,-1,-1,-1,-1,-1,-1,-1,-1,-1,-1,-1,-1,-1,-1,-1,-1,-1,-1,-1,-1,-1,-1,-1,-1,-1,-1,-1,-1,-1,-1,-1,-1,-1,-1,-1,-1,-1,-1,-1,-1,-1,-1,-1,-1,-1,-1],"loss_changes":[1.1764224E1,3.9512691E0,5.018033E0,1.7686968E0,2.4107695E0,3.8773987E0,8.95687E0,1.0581174E0,2.5826603E-1,3.2233458E0,2.9261413E0,4.3475266E0,6.0366783E0,2.2509367E0,6.9959183E0,2.696405E-1,1.098928E0,1.3936162E-3,0E0,2.99739E0,1.1809015E0,1.9735218E0,6.783641E0,3.346864E0,7.398254E0,3.8799193E0,3.863781E0,3.1202157E0,1.1374892E0,2.6193748E0,3.3700333E1,2.3785007E-1,3.2054413E-2,3.2848835E-1,0E0,0E0,0E0,3.7596405E0,2.2048678E0,2.2330713E0,1.9560871E0,2.3201845E0,1.6685307E0,3.2571537E0,0E0,3.2108653E0,9.192164E-1,2.8694506E0,3.3539624E0,0E0,4.0267944E0,2.0783415E0,1.5002975E0,1.8401606E0,6.8090177E-1,7.3071694E-1,3.5348237E-1,0E0,2.49945E0,0E0,6.1104946E0,0E0,0E0,0E0,0E0,0E0,0E0,0E0,0E0,0E0,0E0,0E0,0E0,0E0,0E0,0E0,0E0,0E0,0E0,0E0,0E0,0E0,0E0,0E0,0E0,0E0,0E0,0E0,0E0,0E0,0E0,0E0,0E0,0E0,0E0,0E0,0E0,0E0,0E0,0E0,0E0,0E0,0E0,0E0,0E0,0E0,0E0],"parents":[2147483647,0,0,1,1,2,2,3,3,4,4,5,5,6,6,7,7,8,8,9,9,10,10,11,11,12,12,13,13,14,14,15,15,16,16,17,17,19,19,20,20,21,21,22,22,23,23,24,24,25,25,26,26,27,27,28,28,29,29,30,30,31,31,32,32,33,33,37,37,38,38,39,39,40,40,41,41,42,42,43,43,45,45,46,46,47,47,48,48,50,50,51,51,52,52,53,53,54,54,55,55,56,56,58,58,60,60],"right_children":[2,4,6,8,10,12,14,16,18,20,22,24,26,28,30,32,34,36,-1,38,40,42,44,46,48,50,52,54,56,58,60,62,64,66,-1,-1,-1,68,70,72,74,76,78,80,-1,82,84,86,88,-1,90,92,94,96,98,100,102,-1,104,-1,106,-1,-1,-1,-1,-1,-1,-1,-1,-1,-1,-1,-1,-1,-1,-1,-1,-1,-1,-1,-1,-1,-1,-1,-1,-1,-1,-1,-1,-1,-1,-1,-1,-1,-1,-1,-1,-1,-1,-1,-1,-1,-1,-1,-1,-1,-1],"split_conditions":[7.571456E-2,6.244562E-4,1E0,8.9E2,1.2193635E-2,1.2095069E-2,7.134923E-3,6.78E2,9E2,1.7084E4,1E0,7.3381895E-3,1.378E4,6.5671634E-3,3.35E3,5.1232134E-3,1E0,4.285E3,-2.6465396E-3,4.837234E-3,1E0,1E0,1.1847133E-2,7.2515267E-3,2.922E4,7.8E1,3.6971682E-1,6.478489E-3,1E0,1.1092623E-1,5.849E3,2.46E2,1.36E2,1E0,-4.699254E-4,1.0936294E-2,2.2705533E-3,7.95E2,5.4E1,7.134923E-3,3.4124118E-3,4.671E3,2.2909507E-2,3.0055884E-3,4.9772058E-2,1.2709855E-3,1E0,1E0,1.50208E5,4.2734686E-2,1E0,5.65E2,1E0,4.189E3,1.69E2,3.47E2,4.797209E-1,2.8543452E-2,5.7E2,1.1902677E-1,1E0,-1.3586389E-2,-1.7901179E-3,3.4267795E-3,-9.2656905E-4,-2.3390673E-2,-5.4729376E-3,1.9741843E-3,-4.1923574E-3,-7.3379534E-3,-2.0220529E-3,-8.076662E-3,4.4599436E-3,-3.5692588E-3,-1.175255E-2,1.2966692E-2,-4.6053557E-3,2.9330319E-3,-2.230416E-3,-4.363365E-3,9.481511E-3,-8.4648505E-3,1.1051128E-3,-1.934795E-2,-6.435308E-4,4.4062943E-3,1.2752854E-2,-1.0394578E-2,4.967059E-3,-1.5293597E-3,4.1683517E-2,-2.8669516E-2,-2.2094445E-3,-2.785025E-2,2.231474E-3,5.4801777E-3,2.4670918E-4,5.877916E-3,3.9940406E-2,-1.9302778E-3,-2.279823E-2,-3.7965376E-3,8.534195E-3,1.3225664E-2,-7.852299E-3,2.602242E-2,1.8564274E-3],"split_indices":[2,0,13,4,2,0,0,1,4,1,8,0,1,0,1,2,6,1,0,0,9,3,0,0,1,1,2,0,6,2,1,1,1,16,0,0,0,4,1,0,0,1,2,0,0,0,16,6,1,0,8,4,15,1,1,1,2,0,4,0,9,0,0,0,0,0,0,0,0,0,0,0,0,0,0,0,0,0,0,0,0,0,0,0,0,0,0,0,0,0,0,0,0,0,0,0,0,0,0,0,0,0,0,0,0,0,0],"split_type":[0,0,0,0,0,0,0,0,0,0,0,0,0,0,0,0,0,0,0,0,0,0,0,0,0,0,0,0,0,0,0,0,0,0,0,0,0,0,0,0,0,0,0,0,0,0,0,0,0,0,0,0,0,0,0,0,0,0,0,0,0,0,0,0,0,0,0,0,0,0,0,0,0,0,0,0,0,0,0,0,0,0,0,0,0,0,0,0,0,0,0,0,0,0,0,0,0,0,0,0,0,0,0,0,0,0,0],"sum_hessian":[3.1069985E3,1.4150916E3,1.6919069E3,3.586289E1,1.3792286E3,1.3666052E3,3.2530173E2,3.0035645E1,5.8272433E0,8.711194E2,5.0810928E2,1.2794606E3,8.714458E1,2.617728E2,6.352894E1,1.0707695E1,1.932795E1,2.933121E0,2.8941224E0,7.1043353E2,1.6068585E2,4.4546347E2,6.2645813E1,1.0744854E3,2.0497525E2,4.750374E1,3.9640835E1,2.4660518E2,1.51676235E1,2.3838182E1,3.9690758E1,7.408663E0,3.299032E0,1.6392555E1,2.9353929E0,1.0110283E0,1.9220927E0,4.0242642E2,3.080071E2,4.9484978E1,1.11200874E2,2.7390493E1,4.1807297E2,6.0595272E1,2.0505414E0,1.0622931E3,1.2192258E1,1.535482E2,5.1427048E1,1.0232972E0,4.6480442E1,2.448155E1,1.5159285E1,2.4357906E2,3.0261114E0,7.1602817E0,8.007342E0,1.9629222E0,2.187526E1,2.054482E0,3.7636276E1,3.4937558E0,3.914907E0,1.3458098E0,1.9532223E0,1.4150358E1,2.242198E0,2.7125327E2,1.3117316E2,1.11290924E2,1.9671617E2,2.7418903E1,2.2066074E1,4.9810413E1,6.139046E1,1.7788046E1,9.6024475E0,6.5659805E1,3.5241315E2,2.5293385E1,3.5301888E1,3.1499678E1,1.0307935E3,8.496894E0,3.695364E0,7.63513E1,7.719691E1,3.1354414E1,2.0072632E1,4.545588E1,1.0245633E0,2.1325738E0,2.2348976E1,1.3860416E1,1.2988684E0,1.211778E2,1.2240125E2,1.4772608E0,1.5488507E0,2.8641074E0,4.296174E0,6.030709E0,1.9766334E0,6.25045E0,1.5624809E1,1.890831E1,1.8727964E1],"tree_param":{"num_deleted":"0","num_feature":"17","num_nodes":"107","size_leaf_vector":"1"}},{"base_weights":[3.6786012E-3,-8.298167E-2,4.7348425E-2,-5.917659E-2,-2.1360238E-1,3.564963E-2,2.6825598E-1,-2.3347205E-2,-1.4629577E-1,-2.569023E-1,1.5612304E-1,4.3200362E-2,-2.8251478E-1,9.27794E-2,9.289325E-1,-5.7851035E-2,8.115761E-2,-2.3863177E-1,-3.4173395E-2,-2.384121E-1,-2.8970366E-2,4.7113952E-1,-1.42211E-1,2.7628236E-2,1.6923569E-1,-3.8831264E-1,1.81076E-1,4.4395494E-1,-9.874085E-2,4.8186803E-1,2.3896246E0,-4.7899414E-2,-4.5035982E-1,3.6031753E-2,9.842515E-1,-3.5332623E-1,-1.3936539E-1,1.5919282E-1,-1.0797023E-1,-2.8493214E-1,-8.8011935E-2,-0E0,3.5273515E-2,2.943199E-1,-5.0553197E-1,-3.0969417E-1,3.3292986E-2,6.46549E-1,1.3177466E-1,-2.2723298E-1,-6.626058E-1,3.8349777E-1,-8.114061E-3,2.4435571E-1,1.7138859E0,3.1823184E-2,-1.4741121E-1,1.1543878E0,-6.8635374E-2,2.4191402E-2,8.530477E-2,-2.0210636E-3,2.1464569E-3,-2.2894805E-2,-5.2428497E-3,1.0556549E-2,-3.4659507E-4,5.169601E-2,-1.7651037E-3,-7.948062E-3,-2.1755943E-2,5.4527353E-3,-5.327881E-3,-1.1087366E-2,7.1623772E-3,-1.8401485E-2,-3.2946776E-4,-7.1248864E-3,-2.7086742E-2,7.169384E-4,-3.897705E-3,-5.479291E-3,5.828649E-3,1.4083233E-2,-0E0,-2.0423313E-3,-2.0661714E-2,-3.560184E-3,-2.9489763E-2,-2.7990115E-3,1.2886781E-3,4.5488868E-2,4.3414896E-3,6.840049E-3,7.5660716E-4,8.7630126E-4,-1.4132579E-2,-2.5367381E-2,1.9180292E-2,3.3992244E-4,2.150853E-2,3.9311713E-3,2.670394E-2,7.526689E-2,2.9242243E-5,-3.226282E-2,-2.9438748E-3,5.937041E-2,-4.10252E-3,-2.4408007E-2,3.2331357E-3],"categories":[],"categories_nodes":[],"categories_segments":[],"categories_sizes":[],"default_left":[0,0,0,0,0,0,0,0,0,0,0,0,0,0,0,0,0,0,0,0,0,0,0,0,0,0,0,0,0,0,0,0,0,0,0,0,0,0,0,0,0,0,0,0,0,0,0,0,0,0,0,0,0,0,0,0,0,0,0,0,0,0,0,0,0,0,0,0,0,0,0,0,0,0,0,0,0,0,0,0,0,0,0,0,0,0,0,0,0,0,0,0,0,0,0,0,0,0,0,0,0,0,0,0,0,0,0,0,0,0,0],"id":12,"left_children":[1,3,5,7,9,11,13,15,17,19,21,23,25,27,29,31,33,35,37,39,-1,41,43,45,47,49,51,53,55,57,59,61,63,65,67,69,71,73,75,77,79,81,-1,83,85,87,89,91,93,95,97,99,-1,101,103,-1,105,107,109,-1,-1,-1,-1,-1,-1,-1,-1,-1,-1,-1,-1,-1,-1,-1,-1,-1,-1,-1,-1,-1,-1,-1,-1,-1,-1,-1,-1,-1,-1,-1,-1,-1,-1,-1,-1,-1,-1,-1,-1,-1,-1,-1,-1,-1,-1,-1,-1,-1,-1,-1,-1],"loss_changes":[1.1800784E1,3.2075615E0,5.321923E0,2.7434244E0,2.6110792E0,4.7257123E0,1.18414545E1,2.2718766E0,2.625543E0,1.5341187E0,1.7116508E0,3.7585099E0,2.3246403E0,5.675452E0,1.2631245E1,1.7819681E0,6.2168274E0,1.4987779E0,1.6920899E0,9.285164E-1,0E0,2.8124804E0,1.6628695E0,3.2643378E0,3.610743E0,1.420495E0,9.3473804E-1,6.9224534E0,3.1398096E0,6.778435E0,7.510643E-1,1.0837375E0,7.525778E-1,2.2872593E0,5.876807E0,1.8115582E0,9.811479E-1,1.4443997E0,4.1553917E0,2.814292E0,1.7979977E-1,2.5989646E-1,0E0,2.0342219E-1,3.286463E-1,3.396214E0,2.0665607E0,6.121535E0,1.9903369E0,1.64774E0,3.6936946E0,7.5780964E-1,0E0,1.7519252E0,4.9273214E0,0E0,2.212497E0,9.132995E0,1.5579814E0,0E0,0E0,0E0,0E0,0E0,0E0,0E0,0E0,0E0,0E0,0E0,0E0,0E0,0E0,0E0,0E0,0E0,0E0,0E0,0E0,0E0,0E0,0E0,0E0,0E0,0E0,0E0,0E0,0E0,0E0,0E0,0E0,0E0,0E0,0E0,0E0,0E0,0E0,0E0,0E0,0E0,0E0,0E0,0E0,0E0,0E0,0E0,0E0,0E0,0E0,0E0,0E0],"parents":[2147483647,0,0,1,1,2,2,3,3,4,4,5,5,6,6,7,7,8,8,9,9,10,10,11,11,12,12,13,13,14,14,15,15,16,16,17,17,18,18,19,19,21,21,22,22,23,23,24,24,25,25,26,26,27,27,28,28,29,29,30,30,31,31,32,32,33,33,34,34,35,35,36,36,37,37,38,38,39,39,40,40,41,41,43,43,44,44,45,45,46,46,47,47,48,48,49,49,50,50,51,51,53,53,54,54,56,56,57,57,58,58],"right_children":[2,4,6,8,10,12,14,16,18,20,22,24,26,28,30,32,34,36,38,40,-1,42,44,46,48,50,52,54,56,58,60,62,64,66,68,70,72,74,76,78,80,82,-1,84,86,88,90,92,94,96,98,100,-1,102,104,-1,106,108,110,-1,-1,-1,-1,-1,-1,-1,-1,-1,-1,-1,-1,-1,-1,-1,-1,-1,-1,-1,-1,-1,-1,-1,-1,-1,-1,-1,-1,-1,-1,-1,-1,-1,-1,-1,-1,-1,-1,-1,-1,-1,-1,-1,-1,-1,-1,-1,-1,-1,-1,-1,-1],"split_conditions":[3.3272333E-2,2.2084E4,1.2525855E-2,6.5183984E-3,1.7898694E-2,1.1328682E-2,1E0,1E0,1E0,1.330191E6,1E0,7.815981E-3,5.3763443E-1,5.922E3,1E0,3.128911E-2,8.91E3,1.0636756E-2,8.016249E-3,8.15E2,-2.8970366E-2,2.2909507E-2,2.2165576E-2,6.244562E-4,3.65E2,1E0,1.2332112E-2,4.3883708E-1,4.6492167E-2,1.7998E4,1.6853257E-1,5.1657967E-3,1.029E3,1.8177977E-3,7.05E2,1E0,1.1847133E-2,6.731703E-3,8.874814E-3,1E0,3.1305E4,9.1184E4,3.5273515E-2,1.9972837E-2,4.056452E-3,3.1136483E-1,1.93E2,8.7013235E-3,8.91E3,2.2883295E-1,2.770936E-1,1.1847133E-2,-8.114061E-3,2.0918138E-2,2.3333794E-2,3.1823184E-2,6.666E3,1.670929E-2,1E0,2.4191402E-2,8.530477E-2,-2.0210636E-3,2.1464569E-3,-2.2894805E-2,-5.2428497E-3,1.0556549E-2,-3.4659507E-4,5.169601E-2,-1.7651037E-3,-7.948062E-3,-2.1755943E-2,5.4527353E-3,-5.327881E-3,-1.1087366E-2,7.1623772E-3,-1.8401485E-2,-3.2946776E-4,-7.1248864E-3,-2.7086742E-2,7.169384E-4,-3.897705E-3,-5.479291E-3,5.828649E-3,1.4083233E-2,-0E0,-2.0423313E-3,-2.0661714E-2,-3.560184E-3,-2.9489763E-2,-2.7990115E-3,1.2886781E-3,4.5488868E-2,4.3414896E-3,6.840049E-3,7.5660716E-4,8.7630126E-4,-1.4132579E-2,-2.5367381E-2,1.9180292E-2,3.3992244E-4,2.150853E-2,3.9311713E-3,2.670394E-2,7.526689E-2,2.9242243E-5,-3.226282E-2,-2.9438748E-3,5.937041E-2,-4.10252E-3,-2.4408007E-2,3.2331357E-3],"split_indices":[2,1,0,0,2,0,13,7,6,1,6,0,2,1,7,2,1,0,0,4,0,2,2,0,1,6,0,2,2,1,2,0,1,0,4,5,0,0,0,5,1,1,0,2,0,2,1,0,1,2,2,0,0,0,0,0,1,0,6,0,0,0,0,0,0,0,0,0,0,0,0,0,0,0,0,0,0,0,0,0,0,0,0,0,0,0,0,0,0,0,0,0,0,0,0,0,0,0,0,0,0,0,0,0,0,0,0,0,0,0,0],"split_type":[0,0,0,0,0,0,0,0,0,0,0,0,0,0,0,0,0,0,0,0,0,0,0,0,0,0,0,0,0,0,0,0,0,0,0,0,0,0,0,0,0,0,0,0,0,0,0,0,0,0,0,0,0,0,0,0,0,0,0,0,0,0,0,0,0,0,0,0,0,0,0,0,0,0,0,0,0,0,0,0,0,0,0,0,0,0,0,0,0,0,0,0,0,0,0,0,0,0,0,0,0,0,0,0,0,0,0,0,0,0,0],"sum_hessian":[3.1171423E3,1.0433948E3,2.0737476E3,8.8442975E2,1.5896503E2,1.9709825E3,1.0276497E2,6.2840314E2,2.560266E2,1.4281505E2,1.6149975E1,1.9264424E3,4.4540127E1,8.2219215E1,2.0545748E1,4.7347995E2,1.5492319E2,1.392939E2,1.1673272E2,1.4062398E2,2.191066E0,7.7366557E0,8.413319E0,1.7163889E3,2.1005351E2,3.657198E1,7.968147E0,2.8734716E1,5.34845E1,1.680171E1,3.7440383E0,4.63115E2,1.0364959E1,1.4864624E2,6.2769375E0,6.2970127E1,7.6323784E1,3.1550432E1,8.518229E1,1.0621226E2,3.4411728E1,5.299485E0,2.4371705E0,3.7828708E0,4.6304483E0,2.7169773E1,1.6892191E3,1.3908491E1,1.9614502E2,2.4422678E1,1.21493025E1,5.7587376E0,2.2094088E0,2.5930325E1,2.8043935E0,1.2340896E0,5.2250412E1,7.150734E0,9.650975E0,1.5019035E0,2.2421346E0,3.993038E2,6.381118E1,3.8562331E0,6.508726E0,1.8900108E1,1.2974614E2,3.3485765E0,2.928361E0,5.247791E1,1.0492216E1,7.442192E0,6.888159E1,3.4848304E0,2.8065601E1,1.2691326E1,7.249096E1,1.00076324E2,6.135933E0,8.843131E0,2.5568594E1,2.5640192E0,2.7354662E0,1.8031068E0,1.9797639E0,1.9327116E0,2.6977367E0,2.2197033E1,4.972741E0,1.1844741E2,1.5707717E3,4.2762904E0,9.6322E0,1.0197518E2,9.416983E1,1.2133189E1,1.228949E1,1.1026933E1,1.1223694E0,3.3517373E0,2.4070005E0,2.321455E1,2.7157738E0,1.5581396E0,1.2462541E0,1.4825182E0,5.0767895E1,4.085858E0,3.0648758E0,1.264747E0,8.386229E0],"tree_param":{"num_deleted":"0","num_feature":"17","num_nodes":"111","size_leaf_vector":"1"}},{"base_weights":[1.06862E-2,-7.313601E-2,5.786999E-2,-3.57797E-1,-6.41332E-2,-3.7940793E-2,9.694855E-2,-2.3127037E-1,-2.900587E-2,-4.7127016E-2,-1.7776072E-1,-2.4963968E-1,-2.3900729E-2,6.085847E-2,2.4972315E-1,-1.2101882E-1,-2.6840273E-2,2.70346E-1,-5.458757E-2,-4.7760984E-1,-1.4164603E-1,-3.715716E-2,-4.1501918E-1,-8.1648506E-2,1.8477254E-2,7.0788E-2,-3.2398537E-1,1.925606E-1,1.0848558E0,-1.0355749E-2,-4.3526918E-2,-2.6147565E-1,1.1692963E0,-1.3054481E-1,-3.0398274E-2,-6.149107E-1,-1.9521543E-3,-1.9363493E-1,1.1731021E-1,1.3770227E-1,-4.7122166E-1,-9.08823E-2,-7.8389156E-1,-1.0439955E-1,2.7898446E-2,2.0322001E-1,-1.1519841E-2,6.013951E-3,1.2643485E-1,-1.514339E-1,-8.272068E-1,1.2669154E-1,4.5369425E-1,2.5362866E0,2.509553E-1,1.2690375E-3,-7.174668E-3,-9.322362E-4,-1.3051379E-2,6.543526E-2,1.578609E-2,-1.118055E-3,-6.560925E-3,-3.9326225E-4,-4.5810253E-3,-2.593891E-2,-2.3651933E-3,-1.1904808E-3,-7.682449E-3,9.886353E-3,-1.1663501E-3,2.6400134E-2,-0E0,-3.6389157E-3,-1.9809414E-2,-5.7555535E-3,3.6185554E-3,-3.0453052E-2,-9.760918E-3,-3.1074035E-4,-4.0878514E-3,1.5494921E-2,-1.2702914E-3,4.0622554E-3,2.8165724E-2,2.34778E-2,-6.562348E-4,-6.616248E-5,3.162416E-2,5.7740496E-3,4.0268767E-4,-1.0726983E-2,1.3092839E-2,-4.200161E-3,-3.7617583E-2,7.7510593E-3,-2.9710645E-4,4.555654E-2,8.657301E-3,1.4758225E-1,1.0281673E-2,-6.398004E-3,2.9759288E-2],"categories":[],"categories_nodes":[],"categories_segments":[],"categories_sizes":[],"default_left":[0,0,0,0,0,0,0,0,0,0,0,0,0,0,0,0,0,0,0,0,0,0,0,0,0,0,0,0,0,0,0,0,0,0,0,0,0,0,0,0,0,0,0,0,0,0,0,0,0,0,0,0,0,0,0,0,0,0,0,0,0,0,0,0,0,0,0,0,0,0,0,0,0,0,0,0,0,0,0,0,0,0,0,0,0,0,0,0,0,0,0,0,0,0,0,0,0,0,0,0,0,0,0],"id":13,"left_children":[1,3,5,7,9,11,13,15,-1,17,19,21,23,25,27,29,-1,31,33,35,37,39,41,43,45,47,49,51,53,-1,55,57,59,61,63,65,-1,67,69,71,73,75,77,79,81,83,85,87,89,91,93,95,97,99,101,-1,-1,-1,-1,-1,-1,-1,-1,-1,-1,-1,-1,-1,-1,-1,-1,-1,-1,-1,-1,-1,-1,-1,-1,-1,-1,-1,-1,-1,-1,-1,-1,-1,-1,-1,-1,-1,-1,-1,-1,-1,-1,-1,-1,-1,-1,-1,-1],"loss_changes":[1.241578E1,2.830947E0,7.533326E0,2.28331E0,2.0889149E0,1.6969454E0,7.8290586E0,1.9604781E0,0E0,2.2582095E0,1.4046874E0,1.1923835E0,1.3476357E0,4.4198127E0,1.2652359E1,4.1044512E-1,0E0,1.0826917E1,1.6987548E0,7.1391296E-1,1.7558913E0,1.3862196E0,2.195324E0,5.910275E-1,1.7703571E0,4.056201E0,2.297899E0,4.2875834E0,1.9785017E1,0E0,3.8809934E-1,5.1793796E-1,4.0230474E0,1.8134868E0,1.4866242E0,1.2547617E0,0E0,9.9316883E-1,7.622262E-1,1.3112974E0,1.9000721E-1,2.8129578E-1,4.82749E-1,5.6467485E-1,1.445002E0,1.9904187E0,2.1774285E0,4.6190805E0,4.5030136E0,2.9342992E0,1.7498384E0,3.73467E0,8.325456E0,2.9608192E1,4.4227796E0,0E0,0E0,0E0,0E0,0E0,0E0,0E0,0E0,0E0,0E0,0E0,0E0,0E0,0E0,0E0,0E0,0E0,0E0,0E0,0E0,0E0,0E0,0E0,0E0,0E0,0E0,0E0,0E0,0E0,0E0,0E0,0E0,0E0,0E0,0E0,0E0,0E0,0E0,0E0,0E0,0E0,0E0,0E0,0E0,0E0,0E0,0E0,0E0],"parents":[2147483647,0,0,1,1,2,2,3,3,4,4,5,5,6,6,7,7,9,9,10,10,11,11,12,12,13,13,14,14,15,15,17,17,18,18,19,19,20,20,21,21,22,22,23,23,24,24,25,25,26,26,27,27,28,28,30,30,31,31,32,32,33,33,34,34,35,35,37,37,38,38,39,39,40,40,41,41,42,42,43,43,44,44,45,45,46,46,47,47,48,48,49,49,50,50,51,51,52,52,53,53,54,54],"right_children":[2,4,6,8,10,12,14,16,-1,18,20,22,24,26,28,30,-1,32,34,36,38,40,42,44,46,48,50,52,54,-1,56,58,60,62,64,66,-1,68,70,72,74,76,78,80,82,84,86,88,90,92,94,96,98,100,102,-1,-1,-1,-1,-1,-1,-1,-1,-1,-1,-1,-1,-1,-1,-1,-1,-1,-1,-1,-1,-1,-1,-1,-1,-1,-1,-1,-1,-1,-1,-1,-1,-1,-1,-1,-1,-1,-1,-1,-1,-1,-1,-1,-1,-1,-1,-1,-1],"split_conditions":[3.7593983E-2,6.244562E-4,3.3252786E-3,1.3608351E-2,3.2274E4,1.1338682E-3,1E0,1.1276E4,-2.900587E-2,7.5E-1,3.9858E4,1.4952153E-1,1.4768867E-1,4.1324E5,1.2525855E-2,1.18E2,-2.6840273E-2,6.25E2,5.4E1,8.75E2,5.1232134E-3,6.339E3,1E0,1E0,1.7050299E-1,1E0,1.1328682E-2,7.134923E-3,1.8833E4,-1.0355749E-2,1E0,4.5765694E-3,5.68E2,4.837234E-3,1.4601602E-2,1.3223913E-2,-1.9521543E-3,1E0,1E0,5.7E2,6.9735005E-2,2.234E3,7.520556E-4,1.982149E-3,4.8520137E-2,3.165281E-3,8.7E1,2.0918138E-2,1.2293E4,6.0115004E-1,1E0,1E0,7.61912E-3,1.606332E-2,5.4158E4,1.2690375E-3,-7.174668E-3,-9.322362E-4,-1.3051379E-2,6.543526E-2,1.578609E-2,-1.118055E-3,-6.560925E-3,-3.9326225E-4,-4.5810253E-3,-2.593891E-2,-2.3651933E-3,-1.1904808E-3,-7.682449E-3,9.886353E-3,-1.1663501E-3,2.6400134E-2,-0E0,-3.6389157E-3,-1.9809414E-2,-5.7555535E-3,3.6185554E-3,-3.0453052E-2,-9.760918E-3,-3.1074035E-4,-4.0878514E-3,1.5494921E-2,-1.2702914E-3,4.0622554E-3,2.8165724E-2,2.34778E-2,-6.562348E-4,-6.616248E-5,3.162416E-2,5.7740496E-3,4.0268767E-4,-1.0726983E-2,1.3092839E-2,-4.200161E-3,-3.7617583E-2,7.7510593E-3,-2.9710645E-4,4.555654E-2,8.657301E-3,1.4758225E-1,1.0281673E-2,-6.398004E-3,2.9759288E-2],"split_indices":[2,0,0,2,1,0,13,1,0,3,1,2,2,1,0,1,0,4,1,4,2,1,9,15,2,6,0,0,1,0,15,0,1,0,0,0,0,9,6,4,2,1,0,0,2,0,1,0,1,2,6,6,0,0,1,0,0,0,0,0,0,0,0,0,0,0,0,0,0,0,0,0,0,0,0,0,0,0,0,0,0,0,0,0,0,0,0,0,0,0,0,0,0,0,0,0,0,0,0,0,0,0,0],"split_type":[0,0,0,0,0,0,0,0,0,0,0,0,0,0,0,0,0,0,0,0,0,0,0,0,0,0,0,0,0,0,0,0,0,0,0,0,0,0,0,0,0,0,0,0,0,0,0,0,0,0,0,0,0,0,0,0,0,0,0,0,0,0,0,0,0,0,0,0,0,0,0,0,0,0,0,0,0,0,0,0,0,0,0,0,0,0,0,0,0,0,0,0,0,0,0,0,0,0,0,0,0,0,0],"sum_hessian":[3.1375386E3,1.1290706E3,2.0084681E3,3.308549E1,1.095985E3,5.81137E2,1.4273312E3,2.8672909E1,4.4125814E0,9.5530334E2,1.4068167E2,3.465774E1,5.4647925E2,1.1562437E3,2.7108755E2,2.5729992E1,2.9429173E0,2.08172E1,9.3448615E2,1.3510916E1,1.2717076E2,1.5969365E1,1.8688377E1,2.3190254E2,3.1457672E2,1.1282101E3,2.803356E1,2.5498485E2,1.6102701E1,5.3906407E0,2.0339352E1,1.3455047E1,7.362154E0,2.2365433E2,7.1083185E2,9.587161E0,3.9237547E0,1.0643995E2,2.0730814E1,1.1706055E1,4.2633104E0,1.07550955E1,7.933281E0,1.9281747E2,3.908507E1,4.3602364E1,2.7097437E2,5.226916E2,6.0551843E2,2.1992214E1,6.041344E0,2.0511436E2,4.9870495E1,5.087081E0,1.101562E1,1.4326487E1,6.0128636E0,6.5352182E0,6.919828E0,1.8710092E0,5.4911447E0,1.099116E2,1.1374272E2,6.244764E2,8.635544E1,5.9950314E0,3.59213E0,3.1649668E1,7.479028E1,8.589462E0,1.2141353E1,1.004407E0,1.0701648E1,2.2569764E0,2.006334E0,7.662682E0,3.0924134E0,4.322011E0,3.6112704E0,4.992549E1,1.4289198E2,4.2930636E0,3.4792007E1,4.1130898E1,2.4714642E0,2.4035845E0,2.6857077E2,5.1952E2,3.171575E0,3.8119577E2,2.2432268E2,1.6698715E1,5.2935E0,2.9128244E0,3.1285198E0,1.043561E2,1.00758255E2,5.5131707E0,4.4357327E1,1.8207486E0,3.2663324E0,7.1276574E0,3.8879633E0],"tree_param":{"num_deleted":"0","num_feature":"17","num_nodes":"103","size_leaf_vector":"1"}},{"base_weights":[-6.92277E-3,-8.130949E-2,3.4454487E-2,2.3648898E-1,-8.8322714E-2,-5.284625E-2,7.0702955E-2,5.290865E-1,-2.8799263E-1,-3.629559E-1,-7.988614E-2,-3.685722E-1,-3.1428896E-2,7.371658E-2,-7.628819E-1,1.9686103E0,5.9267886E-2,-1.7642118E-2,-1.3089883E-1,-4.5640892E-1,1.2072291E-1,-3.635972E-2,-1.2418115E-1,-9.527368E-2,-5.7607687E-1,1.975599E-2,-7.052147E-2,9.899062E-2,6.917E-3,-1.0913581E0,-3.524821E-4,-2.7628047E-3,1.197316E-1,-2.096393E-1,3.5273245E-1,2.7017385E-1,-1.1595484E-2,-1.9962755E-1,-7.618545E-1,1.184907E-2,-2.7881593E-3,-6.515413E-2,1.22415885E-1,-1.1722634E-1,-7.039127E-1,2.6272142E-2,-2.1316656E-1,8.239961E-3,-6.6323924E-1,-2.0440496E-3,3.821079E-1,-8.2108974E-2,8.549256E-2,6.1641652E-2,1.6551818E-1,1.8988982E-1,-2.9504942E-2,-1.0166963E-2,-4.029358E-2,-7.558092E-4,-1.5302077E-2,3.4725298E-3,1.5000633E-2,-1.4701739E-2,2.6937518E-2,-7.6691043E-3,5.9140697E-3,-2.5399938E-2,-4.3995776E-3,-2.1917373E-3,1.4078939E-2,2.5625853E-3,2.8155204E-2,-2.7942213E-3,-5.547327E-3,-2.7175171E-2,-6.4362637E-3,-1.963747E-3,-1.5683247E-2,-3.30838E-2,-1.3316535E-2,-6.4672213E-3,4.0037435E-4,1.8048355E-2,-1.2621982E-2,-2.067192E-3,-8.506141E-3,1.4837224E-2,-5.751851E-3,2.7332797E-3,-2.6496921E-3,7.2808564E-3,1.7006395E-3,3.541595E-2,3.4227378E-3,-1.7838762E-3,1.1759486E-2],"categories":[],"categories_nodes":[],"categories_segments":[],"categories_sizes":[],"default_left":[0,0,0,0,0,0,0,0,0,0,0,0,0,0,0,0,0,0,0,0,0,0,0,0,0,0,0,0,0,0,0,0,0,0,0,0,0,0,0,0,0,0,0,0,0,0,0,0,0,0,0,0,0,0,0,0,0,0,0,0,0,0,0,0,0,0,0,0,0,0,0,0,0,0,0,0,0,0,0,0,0,0,0,0,0,0,0,0,0,0,0,0,0,0,0,0,0],"id":14,"left_children":[1,3,5,7,9,11,13,15,17,19,21,23,25,27,29,31,33,-1,35,37,39,41,43,45,47,49,51,53,55,57,-1,-1,-1,59,61,63,-1,65,67,-1,-1,69,71,73,75,-1,77,-1,79,81,83,85,87,89,91,93,95,-1,-1,-1,-1,-1,-1,-1,-1,-1,-1,-1,-1,-1,-1,-1,-1,-1,-1,-1,-1,-1,-1,-1,-1,-1,-1,-1,-1,-1,-1,-1,-1,-1,-1,-1,-1,-1,-1,-1,-1],"loss_changes":[9.708935E0,2.5196047E0,6.414287E0,3.9077847E0,2.485671E0,3.9646525E0,3.5853038E0,1.0557092E1,2.8633004E-1,1.5478168E0,2.0484886E0,1.9956064E0,1.1221988E0,2.3998246E0,1.1420681E0,1.6902071E1,1.1305847E0,0E0,8.916141E-1,1.9036779E0,4.0938792E-1,2.4885554E0,1.9736261E0,2.1262205E0,1.764822E0,1.9435366E0,5.8060956E-1,2.5386496E0,2.64854E0,3.2876015E-2,0E0,0E0,0E0,3.4046194E-1,1.2021279E-1,2.0942936E0,0E0,4.2154944E-1,4.024968E-1,0E0,0E0,1.9442537E0,2.332438E0,8.115163E-1,2.7827144E-1,0E0,6.6247773E-1,0E0,1.2151346E0,7.7294415E-1,2.7294548E0,7.340661E-1,2.602157E0,2.9487412E0,3.0687141E0,4.693867E0,4.1461654E0,0E0,0E0,0E0,0E0,0E0,0E0,0E0,0E0,0E0,0E0,0E0,0E0,0E0,0E0,0E0,0E0,0E0,0E0,0E0,0E0,0E0,0E0,0E0,0E0,0E0,0E0,0E0,0E0,0E0,0E0,0E0,0E0,0E0,0E0,0E0,0E0,0E0,0E0,0E0,0E0],"parents":[2147483647,0,0,1,1,2,2,3,3,4,4,5,5,6,6,7,7,8,8,9,9,10,10,11,11,12,12,13,13,14,14,15,15,16,16,18,18,19,19,20,20,21,21,22,22,23,23,24,24,25,25,26,26,27,27,28,28,29,29,33,33,34,34,35,35,37,37,38,38,41,41,42,42,43,43,44,44,46,46,48,48,49,49,50,50,51,51,52,52,53,53,54,54,55,55,56,56],"right_children":[2,4,6,8,10,12,14,16,18,20,22,24,26,28,30,32,34,-1,36,38,40,42,44,46,48,50,52,54,56,58,-1,-1,-1,60,62,64,-1,66,68,-1,-1,70,72,74,76,-1,78,-1,80,82,84,86,88,90,92,94,96,-1,-1,-1,-1,-1,-1,-1,-1,-1,-1,-1,-1,-1,-1,-1,-1,-1,-1,-1,-1,-1,-1,-1,-1,-1,-1,-1,-1,-1,-1,-1,-1,-1,-1,-1,-1,-1,-1,-1,-1],"split_conditions":[3.7593983E-2,7.5E-1,3.3252786E-3,4.081606E-3,6.244562E-4,1.214662E-3,1.330191E6,1E0,4.3E1,8.9E2,1E0,2.051E3,2.4661133E-3,1E0,5.494506E-1,2E0,1E0,-1.7642118E-2,6.55E2,2.284E3,9E2,1E0,1.330191E6,5.65E2,5.5121727E-2,2.406274E-3,9.1184E4,3.053435E-1,5.65E2,2.770936E-1,-3.524821E-4,-2.7628047E-3,1.197316E-1,5.41E3,1.40981E-3,5.7E2,-1.1595484E-2,1.582E3,8.65E2,1.184907E-2,-2.7881593E-3,1.35804E5,2.9922202E-2,1.8833E4,1E0,2.6272142E-2,1E0,8.239961E-3,1.3157895E-1,4.965243E-2,2.2898E4,4.4009E4,1.35804E5,9.317521E-3,5.0541514E-1,3.6443209E-3,1.2525855E-2,-1.0166963E-2,-4.029358E-2,-7.558092E-4,-1.5302077E-2,3.4725298E-3,1.5000633E-2,-1.4701739E-2,2.6937518E-2,-7.6691043E-3,5.9140697E-3,-2.5399938E-2,-4.3995776E-3,-2.1917373E-3,1.4078939E-2,2.5625853E-3,2.8155204E-2,-2.7942213E-3,-5.547327E-3,-2.7175171E-2,-6.4362637E-3,-1.963747E-3,-1.5683247E-2,-3.30838E-2,-1.3316535E-2,-6.4672213E-3,4.0037435E-4,1.8048355E-2,-1.2621982E-2,-2.067192E-3,-8.506141E-3,1.4837224E-2,-5.751851E-3,2.7332797E-3,-2.6496921E-3,7.2808564E-3,1.7006395E-3,3.541595E-2,3.4227378E-3,-1.7838762E-3,1.1759486E-2],"split_indices":[2,3,0,0,0,0,1,15,1,4,9,1,0,7,2,1,7,0,1,1,4,8,1,4,2,0,1,2,4,2,0,0,0,1,0,4,0,1,4,0,0,1,2,1,12,0,9,0,2,2,1,1,1,0,2,0,0,0,0,0,0,0,0,0,0,0,0,0,0,0,0,0,0,0,0,0,0,0,0,0,0,0,0,0,0,0,0,0,0,0,0,0,0,0,0,0,0],"split_type":[0,0,0,0,0,0,0,0,0,0,0,0,0,0,0,0,0,0,0,0,0,0,0,0,0,0,0,0,0,0,0,0,0,0,0,0,0,0,0,0,0,0,0,0,0,0,0,0,0,0,0,0,0,0,0,0,0,0,0,0,0,0,0,0,0,0,0,0,0,0,0,0,0,0,0,0,0,0,0,0,0,0,0,0,0,0,0,0,0,0,0,0,0,0,0,0,0],"sum_hessian":[3.150951E3,1.1267562E3,2.0241948E3,2.331418E1,1.103442E3,5.9294086E2,1.431254E3,1.5082083E1,8.232098E0,3.1281158E1,1.0721609E3,3.634083E1,5.566E2,1.4271261E3,4.127899E0,2.8737907E0,1.2208292E1,1.6672827E0,6.564815E0,2.6436426E1,4.844732E0,5.4282916E2,5.293317E2,1.6521667E1,1.9819162E1,2.4012929E2,3.164707E2,1.0339469E3,3.9317914E2,2.464202E0,1.6636975E0,1.8717005E0,1.0020903E0,6.341937E0,5.866355E0,2.380916E0,4.183899E0,1.543854E1,1.0997887E1,1.9549303E0,2.8898015E0,4.6053015E2,8.2298996E1,5.244152E2,4.9165034E0,1.0009526E0,1.5520716E1,1.5353179E0,1.8283846E1,2.2717993E2,1.2949354E1,2.956284E2,2.084231E1,6.643862E2,3.695607E2,6.502835E1,3.281508E2,1.3055403E0,1.1586614E0,4.807277E0,1.5346601E0,3.1932936E0,2.6730611E0,1.1039749E0,1.2769412E0,1.4061303E1,1.3772372E0,9.191925E0,1.805961E0,4.5485394E2,5.676226E0,7.990387E1,2.3951287E0,3.8962155E2,1.3479369E2,2.7333019E0,2.1832016E0,1.1546506E1,3.9742098E0,4.594276E0,1.3689569E1,1.4835251E1,2.1234468E2,1.046369E1,2.4856644E0,2.7916895E2,1.645946E1,8.247924E0,1.2594385E1,5.561613E2,1.08224945E2,2.1496744E2,1.5459326E2,3.492293E0,6.153606E1,3.0739838E2,2.075242E1],"tree_param":{"num_deleted":"0","num_feature":"17","num_nodes":"97","size_leaf_vector":"1"}},{"base_weights":[1.8708092E-3,-7.996325E-2,4.5280322E-2,3.6691976E-1,-9.046165E-2,1.4871281E-2,1.8112803E-1,6.804746E-1,-1.413122E-1,-3.5639113E-1,-8.339529E-2,-2.844595E-1,2.2843236E-2,7.337765E-2,6.971308E-1,2.1106783E-1,2.3382263E0,-2.6786238E-1,1.3802897E-2,-4.3277743E-1,1.769902E-1,-7.0041336E-2,-1.7471462E-1,-1.5209457E-1,-6.3780427E-1,-1.3104851E-2,5.5388123E-2,1.225594E-2,2.0375592E-1,8.9112103E-1,7.0577845E-2,-1.525061E-3,2.6897514E-1,-1.3617684E-2,1.20596305E-1,-1.0943552E-1,-1.7118074E-2,-3.2669112E-1,-2.5726229E-2,1.0773483E-2,-0E0,-7.337039E-2,4.5687604E-1,-1.3798378E-1,-3.3318987E-1,-8.037381E-2,-3.2981673E-1,-6.187625E-5,-7.630408E-1,-1.9965338E-2,1.3091116E0,8.739109E-3,1.5131415E-1,7.7567115E-2,-5.8293942E-2,-4.6695977E-2,2.9121205E-1,5.096706E-1,2.3283384E0,-1.5083073E-1,3.3636376E-2,1.1333285E-2,6.995214E-4,-9.518733E-3,1.4859284E-2,-1.11899795E-2,-2.1072227E-4,-2.0742712E-3,-9.65924E-3,-7.169289E-4,2.227577E-2,-1.183549E-2,-3.6032998E-3,-1.0443667E-2,-2.263032E-3,-1.0543457E-2,2.6903881E-3,6.6471556E-3,-1.6115889E-2,-1.2112603E-2,-2.9455172E-2,1.4059788E-2,-9.786665E-4,7.358357E-2,5.0138147E-4,9.487772E-4,-7.068872E-3,2.7117482E-3,9.4636865E-3,-1.4754497E-3,6.251824E-3,4.4704418E-4,-5.933874E-3,-3.969622E-3,2.6086526E-2,1.3091536E-2,-1.4553656E-4,1.8367117E-2,-7.464348E-3,3.3901446E-2,1.427101E-1,-1.0424489E-2,1.9938823E-2],"categories":[],"categories_nodes":[],"categories_segments":[],"categories_sizes":[],"default_left":[0,0,0,0,0,0,0,0,0,0,0,0,0,0,0,0,0,0,0,0,0,0,0,0,0,0,0,0,0,0,0,0,0,0,0,0,0,0,0,0,0,0,0,0,0,0,0,0,0,0,0,0,0,0,0,0,0,0,0,0,0,0,0,0,0,0,0,0,0,0,0,0,0,0,0,0,0,0,0,0,0,0,0,0,0,0,0,0,0,0,0,0,0,0,0,0,0,0,0,0,0,0,0],"id":15,"left_children":[1,3,5,7,9,11,13,15,17,19,21,23,25,27,29,31,33,35,-1,37,39,41,43,45,47,49,51,53,55,57,59,-1,61,-1,-1,63,-1,65,-1,-1,-1,67,69,71,73,75,77,-1,79,81,83,85,87,89,91,93,95,97,99,101,-1,-1,-1,-1,-1,-1,-1,-1,-1,-1,-1,-1,-1,-1,-1,-1,-1,-1,-1,-1,-1,-1,-1,-1,-1,-1,-1,-1,-1,-1,-1,-1,-1,-1,-1,-1,-1,-1,-1,-1,-1,-1,-1],"loss_changes":[1.1146316E1,5.1056376E0,8.452795E0,4.12307E0,1.924119E0,3.9845426E0,2.0696707E1,1.1478191E1,8.8176346E-1,1.1960151E0,1.2282486E0,1.8482249E0,1.9186633E0,2.4552634E0,7.671385E0,2.3858005E-1,1.7774961E1,3.1137145E-1,0E0,6.801257E-1,1.3644432E-1,1.5872064E0,6.6777134E-1,3.53158E-1,8.1965446E-1,6.9416776E0,3.8317862E0,9.8977935E-1,2.2003164E0,2.5384594E1,4.090146E0,0E0,2.567985E-1,0E0,0E0,1.0822774E0,0E0,2.6962662E-1,0E0,0E0,0E0,8.877106E-1,8.6525106E-1,3.978932E-1,2.1356821E-2,1.2210923E0,1.1530025E0,0E0,1.9498873E-1,4.7562265E0,5.548122E0,3.2336245E0,2.7376266E0,1.8831213E0,1.0670943E0,2.0901954E0,3.2087026E0,3.3040733E0,2.296067E1,2.5052893E0,0E0,0E0,0E0,0E0,0E0,0E0,0E0,0E0,0E0,0E0,0E0,0E0,0E0,0E0,0E0,0E0,0E0,0E0,0E0,0E0,0E0,0E0,0E0,0E0,0E0,0E0,0E0,0E0,0E0,0E0,0E0,0E0,0E0,0E0,0E0,0E0,0E0,0E0,0E0,0E0,0E0,0E0,0E0],"parents":[2147483647,0,0,1,1,2,2,3,3,4,4,5,5,6,6,7,7,8,8,9,9,10,10,11,11,12,12,13,13,14,14,15,15,16,16,17,17,19,19,20,20,21,21,22,22,23,23,24,24,25,25,26,26,27,27,28,28,29,29,30,30,32,32,35,35,37,37,41,41,42,42,43,43,44,44,45,45,46,46,48,48,49,49,50,50,51,51,52,52,53,53,54,54,55,55,56,56,57,57,58,58,59,59],"right_children":[2,4,6,8,10,12,14,16,18,20,22,24,26,28,30,32,34,36,-1,38,40,42,44,46,48,50,52,54,56,58,60,-1,62,-1,-1,64,-1,66,-1,-1,-1,68,70,72,74,76,78,-1,80,82,84,86,88,90,92,94,96,98,100,102,-1,-1,-1,-1,-1,-1,-1,-1,-1,-1,-1,-1,-1,-1,-1,-1,-1,-1,-1,-1,-1,-1,-1,-1,-1,-1,-1,-1,-1,-1,-1,-1,-1,-1,-1,-1,-1,-1,-1,-1,-1,-1,-1],"split_conditions":[3.3272333E-2,7.5E-1,1E0,4.081606E-3,6.244562E-4,1.2709855E-3,7.134923E-3,1E0,6.9633033E-3,8.85E2,1.4601602E-2,3.1136483E-1,1E0,2.6791695E-1,4.5993707E-1,6.244562E-4,5.7E2,1.0207658E-2,1.3802897E-2,1.3608351E-2,1E0,1.4161319E-2,1E0,6.244562E-4,5.7E2,2.0918138E-2,3.1136483E-1,1E0,3.4459955E-3,2.610966E-1,7.6042014E-1,-1.525061E-3,1.5733921E-3,-1.3617684E-2,1.20596305E-1,7.0890826E-3,-1.7118074E-2,1E0,-2.5726229E-2,1.0773483E-2,-0E0,1.2332112E-2,5.65E2,1.5070016E-2,1E0,1.0276172E-1,7.855459E-2,-6.187625E-5,1E0,4.0408704E-2,2.2883295E-1,1.0483333E-2,1E0,3.3937865E-3,1.5980114E-1,1E0,4.7357294E-1,2.4252222E-1,1.0823191E-2,1.2883606E-2,3.3636376E-2,1.1333285E-2,6.995214E-4,-9.518733E-3,1.4859284E-2,-1.11899795E-2,-2.1072227E-4,-2.0742712E-3,-9.65924E-3,-7.169289E-4,2.227577E-2,-1.183549E-2,-3.6032998E-3,-1.0443667E-2,-2.263032E-3,-1.0543457E-2,2.6903881E-3,6.6471556E-3,-1.6115889E-2,-1.2112603E-2,-2.9455172E-2,1.4059788E-2,-9.786665E-4,7.358357E-2,5.0138147E-4,9.487772E-4,-7.068872E-3,2.7117482E-3,9.4636865E-3,-1.4754497E-3,6.251824E-3,4.4704418E-4,-5.933874E-3,-3.969622E-3,2.6086526E-2,1.3091536E-2,-1.4553656E-4,1.8367117E-2,-7.464348E-3,3.3901446E-2,1.427101E-1,-1.0424489E-2,1.9938823E-2],"split_indices":[2,3,13,0,0,0,0,16,2,4,0,2,6,2,2,0,4,0,0,2,13,0,15,0,4,0,2,6,0,2,2,0,0,0,0,0,0,6,0,0,0,0,4,0,8,2,2,0,9,2,2,0,16,0,2,8,2,2,0,0,0,0,0,0,0,0,0,0,0,0,0,0,0,0,0,0,0,0,0,0,0,0,0,0,0,0,0,0,0,0,0,0,0,0,0,0,0,0,0,0,0,0,0],"split_type":[0,0,0,0,0,0,0,0,0,0,0,0,0,0,0,0,0,0,0,0,0,0,0,0,0,0,0,0,0,0,0,0,0,0,0,0,0,0,0,0,0,0,0,0,0,0,0,0,0,0,0,0,0,0,0,0,0,0,0,0,0,0,0,0,0,0,0,0,0,0,0,0,0,0,0,0,0,0,0,0,0,0,0,0,0,0,0,0,0,0,0,0,0,0,0,0,0,0,0,0,0,0,0],"sum_hessian":[3.1366633E3,1.0860795E3,2.0505837E3,2.3931158E1,1.0621483E3,1.6770316E3,3.7355222E2,1.4712255E1,9.218904E0,2.584727E1,1.036301E3,4.227992E1,1.6347517E3,3.1012808E2,6.3424145E1,1.2391218E1,2.3210366E0,8.211831E0,1.0070728E0,2.2938335E1,2.9089336E0,9.065893E2,1.2971175E2,3.2004356E1,1.027556E1,7.755868E2,8.591649E2,2.1241045E2,9.771762E1,4.7985306E1,1.5438838E1,1.9530755E0,1.0438143E1,1.1245251E0,1.1965114E0,6.5013895E0,1.7104417E0,1.995823E1,2.9801064E0,1.0074824E0,1.9014513E0,9.0194135E2,4.6479106E0,1.0733559E2,2.2376158E1,2.4237928E1,7.7664294E0,1.9897735E0,8.285787E0,7.726384E2,2.9484007E0,5.7949097E2,